3387 128
the 0.294044 -0.0428311 -0.0206026 -0.0383725 0.10805 -0.208087 -0.0352143 -0.0678375 0.0286466 0.634589 0.121699 0.117268 2.13223 -0.0230524 -0.169309 0.0539921 0.234235 0.0161761 0.136004 -0.0915486 0.12096 -0.213535 0.0834891 -0.0323381 -0.0406895 0.0470699 0.0996419 -0.0425778 0.363805 -0.0870175 0.44072 -0.030012 0.00454112 -0.176049 -0.0454467 -0.0126392 -0.0662652 -0.150553 -0.054248 0.0671917 -0.119351 0.0163591 0.283741 0.0524187 -0.207286 -0.394836 -0.0146956 0.0332597 0.176253 0.439642 0.0222707 0.13092 -0.0561314 -0.0176062 -0.326926 0.0346393 0.058302 -0.0406618 -0.11508 -0.079905 -0.00570084 0.072898 -0.115019 -0.0271877 -0.0813763 0.432237 0.125565 -0.338716 0.00587648 0.0119073 0.409284 -0.0320364 0.0832731 0.183728 0.174192 -0.0960838 -0.0275666 -0.011523 0.0947852 -0.139436 -1.18807 0.0225636 -0.171723 -0.0334529 -0.0209071 0.544168 0.00874868 -0.0305972 0.106218 0.0541776 -0.127869 0.00299378 0.179609 -0.208059 -0.0742016 0.0967228 1.54803 0.0639447 -0.417241 -0.465353 -0.328807 0.147362 0.0866935 0.0666908 -0.0839285 0.0806245 -0.0595891 -0.0479161 0.0307535 0.10572 -0.156648 -0.082232 0.106418 0.265618 -0.0151299 0.0321164 -0.00473114 -0.0159386 0.162278 0.0491205 -0.135405 -0.189982 0.0414851 -0.133274 0.111155 -0.0548662 0.0982742 -0.437545
’ 0.370637 -0.138995 -0.072712 -0.196002 -0.121847 -0.277679 0.00141697 -0.00648719 -0.364986 0.0907933 0.018633 0.242751 -0.244679 -0.0939786 0.00915338 0.0794793 0.291135 -0.0616953 0.282783 -0.0444928 0.0174469 -0.111811 -0.417828 0.0387116 -0.0293769 -0.00667422 0.0324335 -0.0487057 -0.1445 -0.161564 0.237892 -0.149395 -0.0207821 0.00346678 0.0323886 -0.0052642 -0.0190566 0.0922839 0.0170446 -0.0410371 -0.112735 -0.573789 0.219163 0.048392 1.51619 -0.277171 -0.0503198 0.116036 0.12014 -0.394401 0.0218406 -0.126309 -0.128228 -0.0747764 -0.176381 -0.0393078 -0.0384875 0.130655 -0.0107418 0.200224 0.0555665 -0.0640543 -0.0771213 -0.182945 -0.0402513 -0.0914712 -0.0161782 0.0379933 -0.085513 -0.0898154 0.287487 -0.0463959 0.0311872 0.114901 -0.060282 -0.0597934 -0.0621313 -0.0639219 0.358482 0.167716 0.136304 0.0495888 0.949168 -0.028964 0.109041 -0.474218 0.185954 -0.503626 -0.108917 0.0125596 -0.0299672 -0.14556 -0.0570166 3.62028 -0.145064 -0.116467 -0.538741 0.00481291 0.0112529 -0.337105 1.14948 0.0613359 -0.0238836 0.0956954 -0.0154858 0.110885 0.0384694 -0.165119 -0.0628095 0.0862366 -0.16685 -0.0632952 -0.157376 0.0992954 0.0376263 0.061585 0.0597194 -0.122376 0.184588 -0.0164401 0.0880876 -0.219526 0.0391548 -0.135625 -0.0920096 0.372734 0.166686 0.23888
and -0.403244 -0.00797318 0.275635 -0.088851 -0.0165908 -0.0651942 0.0296834 -0.0135689 0.233253 -0.402662 -0.0886879 -0.846584 -0.219833 -0.191197 0.00691336 -0.201322 0.191676 0.456579 0.118487 0.0475235 0.219101 -0.0842861 0.410261 0.00968258 0.198577 0.0768171 0.00460866 -0.093019 -0.452988 0.942355 0.538779 -0.221736 -0.0102419 -0.0594079 0.109666 -0.0783457 0.00287948 -0.111553 -0.0794537 0.0924213 0.0416379 0.120643 0.307467 -0.0207031 0.446368 -0.511669 -0.0639384 0.0276298 0.290253 0.417665 0.00889868 0.291593 -0.13218 -0.0398546 -0.364303 0.115527 -0.799789 0.0328823 -0.10628 -0.0780544 0.0224485 0.0868906 0.220779 -0.12996 0.107803 -0.473316 0.00899447 -0.376792 0.434462 -0.0325617 -0.585415 -0.180092 -0.039422 0.135664 -0.0338313 0.00507181 -0.0163182 0.0673243 0.0986382 -0.0906559 0.586358 0.122047 -0.354245 -0.0371087 -0.0211883 -0.303285 -0.300787 0.0279424 0.520673 0.0103692 -0.0917019 0.149969 -0.0569358 -0.629997 -0.0170247 0.0940398 1.56894 0.041945 1.44589 1.92732 1.03618 0.11381 0.0855054 -0.364434 0.34132 0.243964 -0.0425763 0.0239406 0.0099136 0.154311 -0.059365 0.0116351 0.140396 -0.632433 -0.0848829 0.0251392 -0.0775502 -0.184828 -0.0139112 -0.016814 -0.334226 -0.181789 0.0838426 -0.0102664 0.17827 -0.254719 -0.0799221 0.368365
to -1.33977 -0.334782 -0.885774 0.453972 0.0178826 0.868372 -0.239707 0.0504355 0.210804 0.450419 0.0843448 0.202375 -0.638463 0.597876 -0.0169875 0.0824535 -0.173533 0.63183 0.078578 0.0546782 -0.122736 -0.0376775 -0.510482 -0.0518826 -0.504188 -0.116656 -0.0521824 -0.0747103 -0.640399 -0.420523 -0.156715 -0.238654 -0.0155776 0.0454719 0.0526455 -0.0445292 -0.0377629 0.108436 -0.112738 0.148899 0.00377494 0.226089 0.110859 0.00971978 -0.233807 -0.219657 -0.0997527 -0.0227375 0.0190171 0.0819951 -0.0140371 -0.282548 0.334358 0.0107011 0.583622 -0.202016 0.143807 0.166922 -0.040344 -0.0558213 0.248258 0.0700857 1.04276 0.0429135 -0.250309 0.0199052 0.311058 -0.0507783 -0.110863 -0.150556 0.140368 0.458297 0.205871 -0.541708 -0.0636788 -0.100903 -0.328897 0.00231311 -0.0732237 -0.15835 -2.05685 0.0268762 -0.201417 -0.0334382 0.166806 -0.763898 0.114771 -0.00801036 0.0638646 -0.0365753 -0.0585126 0.0167998 -0.0574021 -0.26619 -0.00268193 0.0350126 0.00544461 -0.105299 -0.114122 1.19171 -0.242802 0.0148071 -0.0328261 0.0101225 -0.175145 -0.0526943 -0.0504367 -0.0648294 -0.00551085 -0.185568 -0.17024 -0.142215 -0.93739 0.407571 -0.0403569 0.00519435 -0.0277386 0.0514137 0.381294 -0.135158 -0.175147 -0.170822 0.0889471 0.283149 0.0566677 0.997802 -0.0780743 0.512194
a 0.176803 -0.0359147 0.129955 -0.0314353 0.0993519 -0.237019 0.124537 0.0186741 0.0612793 -0.640226 -0.0253832 0.0660007 -0.420392 -0.623496 0.0053934 0.178522 0.0533971 -0.200705 -0.767987 -0.00375298 0.0460963 -0.293179 -0.817895 0.0910869 -0.221727 -0.0534663 -0.0374594 0.0773116 -0.106399 0.0365538 0.602516 0.0141 0.0769779 -0.460706 -0.0179703 0.338528 -0.0109545 0.0892656 0.076215 -0.103112 -0.589448 0.186488 -0.109727 -0.0455976 -0.287862 1.02174 0.332691 -0.317259 -1.68856 0.460991 -0.336419 0.177474 0.516423 0.0106667 1.01183 0.164137 0.386618 -0.0355122 -0.0411766 -0.326633 -0.096455 -0.0875852 -0.0629778 0.556 -0.0574619 0.0990467 -0.359048 -0.359689 0.064133 0.0072633 0.148224 -0.0561792 0.0940251 0.141549 0.340822 0.164356 -0.107982 -0.506462 -0.0252855 -0.193504 0.527269 0.157361 -0.0605974 0.11949 0.32233 -0.346338 0.132037 0.0114841 0.0166125 0.0145392 -0.0933684 0.102886 0.039562 -0.172533 -0.266068 -0.0359059 -0.498879 0.00697779 2.03859 -0.606075 -0.472933 -0.0980027 0.0387066 0.282624 0.411437 -0.403997 -0.0754781 0.0157458 -0.0196068 -0.172068 0.171056 -0.102389 0.00979101 -0.701946 0.061094 -0.163007 0.187526 0.450079 0.118475 0.000958046 -0.0858088 -0.0651256 0.01588 -0.402143 0.170728 0.885964 -0.0109799 -0.984863
of 0.285967 0.398533 0.00130803 0.0548372 0.0387807 -0.193776 -0.0666878 0.0383112 -0.0263815 -0.064838 -0.0204403 0.296175 -0.118708 0.136837 0.0731305 0.0510912 0.00467771 -0.0257012 0.117525 -0.00415834 0.491692 0.183634 0.325797 -0.0311466 -0.328276 0.0189228 -0.0163782 0.116421 -0.31441 -0.503709 0.353961 -0.176946 -0.0211269 -0.284865 -0.0422077 -0.105136 -0.132547 -0.702506 0.175779 0.119826 -0.0116931 0.0282031 0.569554 0.143899 -0.445562 2.56328 0.0380631 0.0409282 0.268958 -0.141938 -0.0287839 0.122553 -0.31541 0.0268794 0.680081 0.0495134 -0.0081535 0.0298065 0.282095 0.0769268 0.124718 -0.461521 -0.17227 -0.0648461 -0.00310479 -0.41769 0.0244175 0.334079 -0.0764633 -0.0434539 0.728334 -0.0418464 0.0173614 -1.61752 0.00144427 -0.0785905 0.0556822 -0.573308 -0.062652 -0.127315 0.239315 -0.834601 -0.180022 -0.0738397 0.344941 1.30698 0.155222 -0.0351098 0.0807115 0.0613226 -0.16844 0.102697 -0.135622 -0.310807 0.054006 0.0748935 2.00927 0.125484 -0.320732 -0.509361 0.351114 0.169375 0.154487 -0.315651 -0.297612 0.00365339 -0.080073 -0.107255 -0.0107092 0.353175 0.533118 0.532105 0.0520216 -0.617269 -0.0646867 -0.181203 -0.0257037 -0.193468 0.217911 -0.00385965 0.111576 -0.270179 0.0223446 -0.115193 0.157529 -0.151356 -0.00735941 0.602179
she 0.276783 -0.528912 -0.113246 -0.228165 0.0113264 0.506086 -0.565717 0.0821593 0.597724 -0.173597 -0.0938789 0.114005 -0.535477 0.3388 0.0558134 -0.0364614 0.465754 0.714083 0.546323 0.0102299 0.183807 -0.0579459 0.151476 -0.0604736 -0.124664 -0.17995 -0.0556416 -0.237521 -0.302265 1.73291 -2.01603 0.322677 -0.0711538 0.0165704 0.0394721 -0.128681 -0.29078 0.0502081 0.456912 0.120733 0.314546 0.307932 -0.31084 0.0905036 -0.461583 0.91187 0.00228725 0.409048 0.322235 0.422114 -0.0087889 0.169325 -0.243546 -0.233749 -0.133734 -0.00711841 -0.329501 0.434865 0.300456 -0.00137416 -0.0464554 -0.809964 -0.080513 -0.0392493 -0.304008 -0.40044 -0.0619075 0.602946 0.769879 -0.171555 -1.67808 0.133998 0.080786 0.0264212 0.106164 -0.148765 -0.264111 0.513019 0.356205 0.871112 0.0563337 -0.071021 0.441239 0.0421453 -0.250573 0.277828 0.0227422 -0.838947 0.116867 0.432204 0.323912 -0.664135 0.228174 -0.283093 -0.380173 0.0226372 -1.30436 -0.30352 0.169495 -0.363253 -0.331558 -0.0488588 0.240621 0.212994 0.246219 0.266044 0.27906 -0.360866 0.0431452 -1.05695 -0.0806769 0.156668 -0.104147 -0.0439402 0.177844 0.123293 0.218753 -0.170218 -0.129633 0.232917 0.183927 0.159846 -0.0615201 -0.327007 -0.765359 -0.117702 0.0802845 -0.980007
it -0.244701 0.127908 -0.342925 0.110626 0.086532 -0.0721084 0.201142 -0.0178928 -0.259607 -0.531004 0.0033575 0.0378689 1.08449 -0.307598 -0.394078 0.131893 0.132032 0.00583356 0.172163 -0.0248911 0.320857 1.41554 0.0921172 0.00642679 0.487099 0.0562132 -0.0185828 0.0890768 0.0875914 -0.477814 0.0619696 -0.403139 -0.0972316 0.425457 9.09019e-05 0.27896 -0.133664 0.205815 0.250209 -0.242812 0.320104 0.561288 -0.906239 -0.488285 -0.0530209 -0.243181 -0.145636 -0.351292 -0.403268 -0.767378 -0.0577668 -0.0863268 -0.544401 0.741769 0.405506 -0.210377 -0.0167802 -0.0498408 0.0273836 -0.0161502 0.153643 -0.0923383 0.0137078 -0.122502 0.122293 -0.526559 0.143176 0.190035 0.207121 -0.483742 -2.06961 -0.116803 -0.0255982 -0.286534 -0.13947 -0.135279 1.01268 -0.182368 0.03026 -0.0891692 0.477179 0.0538803 0.69771 -0.0619173 0.0828539 -0.61299 0.028314 -0.68251 0.161658 0.120987 -0.0772143 -0.172981 -0.00486373 -0.167823 -0.252206 -0.96523 -0.645391 -0.0338418 -0.149025 -0.0626733 -0.466648 -0.79952 0.122024 -0.820331 -0.274809 0.212688 0.00536619 0.426318 -0.876944 0.268018 -0.168229 -0.123346 -0.587028 -0.00558572 -0.0559189 0.138996 -0.155638 -0.0991633 -0.125573 -0.164946 -0.507344 1.27903 -0.609619 0.123719 -0.2672 0.0777807 -0.021557 -0.221042
said 0.10559 -0.46934 0.408205 -0.11011 0.155442 0.161542 -0.409058 -0.142413 -0.15324 0.726155 0.702555 0.265507 0.0282862 0.00432289 -0.183524 -0.0172528 -0.151838 -0.256435 -0.984113 -0.141478 0.16776 -0.254261 -1.18864 -0.134994 0.175962 0.115552 -0.0641171 -0.0784029 -0.524969 -0.138922 -0.0672624 0.206342 -0.0567028 -0.113979 -0.145486 -0.517959 -0.119391 0.0304561 -0.409036 0.187634 0.104954 -0.0780458 -0.667 -0.152588 0.492273 -0.0209036 0.719104 0.0929294 -0.341358 -0.713577 -0.0035995 -0.166953 -0.288186 0.217031 0.737517 0.0550529 -0.261989 0.0232898 0.106775 -0.280389 0.109654 0.11313 -0.241794 -0.116024 -0.178777 -0.419174 0.327616 -0.267922 0.201743 -0.10357 0.152362 0.187462 0.126795 0.257332 0.372042 0.157688 -0.174042 0.271395 -0.117003 0.176738 -0.804338 0.213671 -0.0122074 -0.0184592 -0.618979 -0.453702 -0.690183 0.726414 0.677264 0.456769 -0.00924541 0.227593 0.625006 1.93849 0.0838759 0.462205 -0.380201 0.0328278 -0.097257 -0.546701 1.40739 -0.694104 0.352836 0.148448 -0.293002 -0.112213 0.00381859 0.83132 0.10295 0.421198 0.0416349 0.000446287 0.251182 0.253463 -0.0468445 -0.643461 -0.14982 -0.0991507 -0.110088 0.0789955 0.144588 0.0294243 -0.0743269 -0.0556852 -0.0316348 -0.700453 -0.143477 0.228875
in 0.422857 0.535936 0.108439 0.0113124 0.0378533 0.00954254 -0.441701 0.278931 0.318317 -0.681918 -0.270433 -0.0243129 -0.353864 0.0298268 0.0842011 -1.19617 -0.384656 0.137758 -0.775411 0.104079 0.045512 0.00610997 0.266573 -0.000397102 -0.109334 -0.52917 -0.000221855 -0.0158528 2.74086 1.1923 -0.324428 0.496205 -0.0374874 -0.168804 0.0150132 -0.126298 -0.132741 -0.0999846 -0.054506 0.091807 0.0468497 0.17777 -0.688082 -0.0379413 0.567427 -0.240751 0.0146037 -0.0710007 0.0956347 -0.372071 -0.094214 0.069025 -0.0684735 0.143424 -0.17089 0.170715 0.0784073 -0.0174453 1.18109 0.0597832 0.0374421 0.115697 -0.0710445 0.132822 -0.199226 1.4098 -0.0127662 -0.274526 -0.0141614 -0.160268 0.50469 -0.187609 -0.0437378 0.337931 -0.0183737 -0.342343 -0.0938868 0.125091 0.120791 -0.226894 0.565096 -0.0570445 0.43093 0.124521 0.237925 -0.220306 0.0362726 0.0872794 0.860724 -0.0241929 -0.18013 0.219924 0.336475 -0.490186 -0.0175549 0.343557 0.361778 0.272274 -0.0627016 -0.482918 -0.341461 0.169626 -0.782847 -0.330527 -0.23694 -0.103055 0.448279 -0.0745289 0.0937093 0.0181192 -0.0542522 -0.18342 -0.68 0.152727 -0.13322 0.0856549 -0.66335 1.03985 0.387823 0.0624902 0.110568 -0.00379004 0.0180468 0.101432 0.376188 0.579839 -0.107421 0.357881
you 0.07597 -0.0140947 -0.30668 0.239814 -0.0656657 0.364443 -0.17397 -0.0733923 -0.228188 -0.412517 0.211715 -0.149248 -0.316561 -0.0578974 0.111398 -0.0616602 -0.125293 0.606093 -1.00672 0.268702 0.140231 0.0828112 -1.23783 -0.0105625 0.157449 -0.306319 -0.00521469 -0.280509 0.560706 -0.325254 0.23894 -0.2084 0.0100546 -0.174468 0.0675393 0.00342448 -0.467371 -1.04548 -0.355402 -0.382637 0.292061 -0.793761 0.205847 0.0174458 -0.203302 -0.445795 0.013454 0.00990512 0.145549 0.331824 -0.144274 0.105068 1.15248 -0.429185 -0.129687 -0.164691 0.335922 0.708242 0.0187588 -0.18377 -0.717786 0.120648 0.787422 -0.0966349 0.263775 -0.62453 -0.0296333 0.049542 -0.177513 0.115515 -1.24163 0.219149 -0.659806 -0.0997939 0.0140725 -0.132022 0.0121705 0.0433551 -1.07038 0.270467 -0.549882 0.0606156 -0.244623 -0.0510908 -0.0240476 0.54317 -0.0488897 -0.199858 -0.440104 0.0368962 -0.0811729 0.106997 0.255283 0.631756 0.0403221 -1.03935 -0.754645 0.433466 -0.76699 -0.163652 -0.112484 0.264632 -0.0334946 -0.0662615 0.835485 -0.16049 -0.365311 -0.0496149 -0.704814 -0.191295 0.334911 0.411807 -0.150789 -0.370026 -0.311125 0.102937 -0.547201 -0.0898408 -0.471196 0.113726 0.327033 -0.448502 0.288156 0.654167 0.348761 0.0135836 -0.556804 -0.409511
alice -0.231096 -0.774581 0.790751 -0.514947 -0.524325 -1.01754 0.916907 0.243997 0.376822 0.0776708 -0.380248 -0.0955557 -0.354999 0.738053 0.609512 0.0708788 -0.705199 0.186085 0.174094 -0.0321691 -1.08343 -0.258781 -0.469232 -0.0838063 0.513449 0.181781 0.200799 -0.186722 0.0350219 -0.333157 -1.70541 -0.0939452 0.091013 -1.44202 0.0236552 0.318131 -0.22692 -0.148339 0.488286 -0.717759 0.417108 -0.486373 -0.995638 0.000594273 -0.199513 0.00352384 0.174625 0.00207069 0.315944 -0.264412 -0.0514611 -0.200052 -0.138508 0.358146 0.638739 0.118972 0.0544848 0.197532 -0.130319 -0.401322 0.0744682 -0.417025 -0.358262 -0.0193759 0.272624 0.158297 0.734201 -0.694955 -0.0385522 0.284605 0.503855 -0.281071 -0.315515 0.13371 -0.0161905 0.326127 1.01549 0.136931 -0.218149 -0.024513 -0.388562 -0.0221503 -0.369222 -0.113811 0.0528918 -0.00402012 -0.154234 0.26704 -0.447225 -0.0725678 0.48242 -0.538234 0.0885258 0.429709 0.101574 0.10279 -0.772624 0.018406 0.0242571 0.188501 0.979829 -0.0486587 0.497606 -0.253207 0.188063 -0.164249 -0.152899 0.325693 0.310081 -0.0468636 -0.177956 -0.124621 -0.0216034 0.0473239 0.718859 0.121659 0.527703 0.0201039 -0.667569 0.0108962 -0.426795 0.776925 -0.039521 -0.257594 0.298143 -0.117093 -0.379942 0.183
was 0.506651 0.776015 0.317171 -0.111624 -0.131679 -0.0800036 -0.0780157 -0.0574672 -0.0915178 -0.154859 -0.0914617 -0.00203741 0.852356 -0.746609 -0.195166 -0.306981 -0.445712 0.0671399 0.0862564 0.115305 -0.0946318 -0.0303263 0.0672725 -0.0231394 0.990745 -0.267003 0.480467 0.319631 -1.00061 -0.604878 -1.40494 0.021845 -0.149894 -0.377329 0.0989883 -0.117829 0.033051 -0.0576771 -0.0660569 0.150463 0.216633 0.468097 0.399821 -0.135209 0.715641 1.30746 -0.213088 -0.143978 -0.638787 0.47391 -0.196011 0.127821 0.624764 -0.389601 0.18125 -1.1033 -0.00630875 -0.465328 -0.116238 0.705235 0.0239202 0.280274 -0.120417 -0.350813 0.681069 0.302472 0.144498 -0.16392 -0.297963 0.162896 -1.13279 -0.179798 0.0638129 -0.524616 0.0554991 1.14208 -0.268952 0.388116 -0.134547 -0.12081 0.330363 0.484225 0.628538 -0.0769693 0.367961 -0.0593143 -0.270445 -0.215473 -0.307291 -0.232658 0.733292 -0.00274544 0.469826 -0.468319 0.269725 0.41998 -0.0929145 -0.330093 -0.206724 0.198061 0.0493702 -0.902689 -0.0293012 -0.0535261 -0.232506 1.27465 0.206238 -0.349539 0.0592459 -0.873489 -0.250246 -0.512393 0.719803 0.257135 0.0153833 0.0834209 0.0605665 0.206294 0.941068 0.198709 -0.0536794 -0.0815793 0.235817 0.0346512 -0.221374 0.253727 0.374277 -0.0793659
that 0.151604 0.2527 -0.30351 0.717389 -0.204703 -0.208407 -0.715247 -0.0657393 0.0281809 0.922538 0.634661 -0.995836 0.107628 0.740776 -0.259954 -0.732697 -0.182485 0.0300932 0.304794 0.11136 -0.0268245 1.09853 0.040794 -0.324648 0.449329 -0.166839 -0.0608707 0.00658827 -0.340351 -0.357291 0.310002 1.30329 0.169718 0.141802 0.0390009 1.02521 -0.0636589 -0.337954 0.0417509 -0.50798 0.00542496 -1.25293 -1.12571 0.0232841 0.547487 0.327827 0.00855158 -0.034509 0.515312 0.507771 -0.0215929 0.104472 0.101264 0.0125205 -0.254477 0.00389879 -0.142889 -0.190964 0.290934 0.978405 -0.064289 -0.339559 -0.0389313 -0.138495 -0.216238 0.507427 0.0520392 -0.113923 0.331287 -0.114603 -0.0195096 0.23552 0.0108045 0.398517 -0.356673 1.96783 -0.00990103 -0.130256 0.350064 -0.0520638 -0.0850862 -0.405197 -0.326624 -0.245075 0.0794222 -0.260623 0.0052783 -0.00513886 -0.796787 -0.660872 0.798766 0.363966 -0.0984437 -0.48563 -0.35221 -0.285417 -0.796462 -0.613158 1.28122 -0.426847 -0.287934 0.0433037 -0.0549861 0.175638 0.0411222 0.0822202 0.0535832 -0.205445 0.0183049 0.131809 0.249541 -0.0395528 -0.261758 0.401877 -0.066171 -0.00251696 -0.316287 -0.169475 -0.162143 -0.287149 0.127341 -0.166011 0.112003 -0.0896604 -0.166072 -0.389207 0.154726 0.332923
i -0.68936 0.0836064 -0.0244827 -0.214356 -0.116521 0.0114463 0.00252598 0.0499744 -0.888994 -0.373879 0.0568324 -0.494754 0.14453 -0.174869 -0.601043 0.187021 -0.0118823 -0.00226114 0.432099 -0.101462 -0.234576 -0.0353733 0.0867849 0.179354 -0.853595 0.84096 -0.430029 0.269559 1.71762 0.178748 -0.798367 -0.25478 -0.074941 0.204337 0.458375 0.130514 -0.0360492 0.189533 0.0392598 -0.555561 -0.503664 0.134946 -0.374856 0.0468494 -0.11033 -0.129968 0.322986 0.212815 -0.020902 0.639676 0.071725 -0.701421 -0.0846284 -0.135584 -0.0484229 -0.45003 -0.0913045 0.208121 0.0862428 0.211171 0.0883443 0.259478 -0.708792 1.12437 0.252989 0.965741 0.294316 0.309023 -0.382269 -0.151252 -0.429545 0.137363 0.0487692 -0.596408 -0.155643 1.28944 -0.361226 0.174758 -0.496089 0.363607 0.679418 -0.143094 -0.308987 -0.0265169 -0.590727 -0.50626 -0.318709 0.205514 -0.282697 -0.354914 -0.364245 0.269101 -0.779904 0.935165 0.416206 0.214709 -0.6235 0.183425 0.0348665 0.224762 -0.134816 0.40485 0.765167 0.758432 0.5508 0.753741 -0.066862 -0.264495 0.0612432 0.327286 0.425546 0.552818 -0.168883 0.308629 -0.157147 -0.0300479 -0.021615 -0.422918 -0.645447 -0.311785 0.264222 0.0535399 -0.586551 -0.536236 0.00391493 0.749854 0.172776 0.493953
as 0.223639 0.0637225 0.3845 0.21478 -0.0102275 -0.266893 -0.0450738 -0.104612 0.534372 0.773003 0.075609 0.328543 -0.628491 -0.0307995 -0.678801 0.16164 -0.353268 -0.0365656 -0.0929922 -0.0847952 0.0303661 -0.0524953 0.396029 1.23814 0.0281495 0.0727279 -0.0210505 -0.0364555 0.972091 0.201029 0.239836 1.16122 0.0864574 0.225097 -0.0789915 -0.222337 0.321412 0.216748 0.359478 -0.336503 -0.136478 -0.00531707 -0.162067 -0.230626 0.454857 -0.155673 0.0291932 -0.32005 0.387914 0.104952 0.337214 0.138578 -0.509 0.13226 0.231462 0.0348317 -0.0226114 -0.180583 -0.0126481 -0.397243 0.041173 -0.113376 -0.11331 1.02612 0.942201 -0.597224 -1.26819 -0.0555264 -0.175725 1.28033 -1.10076 -0.260287 -0.0244001 -0.983322 0.241163 0.203164 -1.25513 0.0341003 -0.857146 -0.13107 -0.721985 0.192442 0.510656 0.146523 0.2017 0.103625 -0.107953 0.103258 0.140345 0.000863067 0.393965 -0.916361 -0.530173 -0.329367 -0.653278 -0.0923469 -0.50072 -0.560203 0.206703 -0.355889 0.0195845 0.0618745 -0.44312 0.232066 -0.223177 0.537936 -0.174066 -0.351682 0.544464 0.176843 -0.0649948 -0.590535 0.21142 0.068729 -0.00936881 -0.0888052 0.478548 -0.111708 -0.451793 -0.543564 -0.794161 0.44411 0.303921 0.0162157 0.33497 -0.125207 -0.707545 -0.0786061
her 0.407597 0.884658 -0.0350891 0.563318 -0.0797199 -0.156841 0.400029 -0.0338553 -0.629658 -0.0415936 -0.0797024 0.191484 -0.320996 -0.388204 0.0224136 -0.0414042 -0.0486129 -0.374613 0.0443187 0.0527211 -0.188236 -0.286651 0.375648 0.0525189 -0.0588645 0.126027 -0.0641804 -0.519709 -0.469103 0.0466311 -0.606982 0.398197 -0.0907998 0.0962826 -0.328325 0.0563742 -0.054765 0.349959 -0.0373499 0.0507533 0.0299264 -0.131015 -0.0297506 -0.0439065 1.14371 0.991563 0.296827 -0.0190166 0.330696 0.0950869 -0.162292 -0.12878 0.456911 0.295545 -0.191612 -0.0276741 -0.116167 0.500272 0.0096961 0.150584 -0.146603 -0.0210546 0.0434988 0.750689 0.765439 -0.437137 0.628313 0.2463 -0.502828 -0.340885 0.156647 0.217072 -0.0670682 0.193529 -0.346423 -0.239035 0.0500375 0.0999711 0.765849 0.559022 0.295187 0.0628926 -0.113139 0.195038 -1.34907 2.36885 -0.280051 -0.655542 0.545202 0.022297 0.309294 0.497151 -0.00929814 -0.307337 -0.870077 0.575602 -0.83161 0.0129525 0.0318095 1.04248 -0.261656 -0.135616 -0.217401 0.0434387 0.0313858 0.0333687 0.860005 1.12322 -0.0310472 -0.234861 -0.572603 0.896562 -0.539092 -0.227658 0.16887 -0.035504 0.343433 0.0121896 0.494028 -0.0990345 -0.227016 -0.317904 0.0459103 0.188719 0.166589 -0.318135 -0.0610258 0.374443
with -2.41647 0.0208397 -0.168543 0.661172 0.306503 -0.171846 0.0951318 0.582145 -0.0323873 -0.202686 -0.674196 0.0360076 0.106593 -0.241608 -0.302094 0.173784 -0.397678 -0.150638 -0.0732473 0.317185 -0.741055 -0.136943 0.150424 0.265977 0.139728 -0.372521 -0.0670976 1.12477 -0.0990827 -0.44374 0.00962278 0.703594 -0.00654285 -0.187434 -0.315331 -0.144603 -0.149314 -0.493163 0.149019 0.145457 -0.222523 -0.922041 -0.315135 -0.119942 -0.0391979 -0.225323 0.0153274 0.0374918 -0.00654849 0.261173 -0.044855 0.47926 -0.889966 -0.308461 0.0862686 0.025408 -0.187879 0.197331 -0.909953 -0.108231 -0.163657 -0.052862 0.128712 -0.0178672 -0.502393 0.417282 -1.27601 0.236512 -0.524862 0.167965 0.392555 -0.0620443 0.198815 0.249184 0.12533 -0.212499 0.0269298 -0.241061 -0.0375322 0.821621 0.218326 0.301977 -0.179463 -0.0223817 -0.00960452 0.192448 -0.456426 -0.10914 0.171658 0.427392 -0.270505 0.61036 0.0404216 -0.0802972 -0.454575 -0.0377367 1.36778 -0.0248696 -0.0601175 0.291557 -0.484901 -1.54342 -0.00492755 0.337098 -0.728616 0.0424882 -0.108033 -0.0790607 0.0379605 0.261075 0.0372336 0.515917 0.260878 -0.776892 0.248052 -0.0645606 -0.0828501 0.606632 0.00393285 -0.0761413 0.100466 -0.114202 0.00495826 0.327693 0.357679 0.110362 0.698529 -0.0234396
at -0.174193 0.0131568 -0.352644 0.247228 0.0306184 -0.504349 0.191844 0.355268 0.0555073 0.00135614 0.00181775 0.0785991 -0.276265 -0.814665 -0.131135 -0.757183 -0.0839391 0.00246026 -0.535835 -0.858338 -0.405432 -0.22488 0.417474 0.169646 0.284858 -0.166686 0.0407643 -0.158949 0.0295523 -0.795256 0.0862764 0.327468 -0.803559 0.141083 0.1683 0.00061249 1.11657 -0.172349 -0.0573963 0.178993 -0.137845 0.0465702 0.525078 1.06355 -0.100697 0.0479158 -0.0482413 0.352862 -1.60547 -1.03389 -0.449348 0.336942 0.252972 0.393573 -0.287151 -0.351039 0.0425669 -0.0232236 0.296156 -0.795875 -0.216247 0.275725 -0.100485 -0.517145 -0.408833 0.976437 0.0277395 0.0096653 0.107698 0.375926 0.23149 0.0529003 0.0124085 0.0125785 0.183225 0.0380666 0.724544 -0.13929 0.441804 -0.0266363 0.432208 -0.691213 -0.064079 0.965661 0.512802 0.770149 -0.759686 -0.0200279 -0.395711 -0.0593011 0.145612 -0.466929 -0.129151 -0.809577 -0.0194619 -0.242481 0.799667 -0.690635 -0.751156 1.22117 0.640059 0.0530928 0.689636 0.193272 -0.0929597 -0.0793522 0.0952328 -0.159865 -0.229355 -0.0369307 -0.20462 -0.568329 0.255044 0.305793 0.631812 -0.273609 -0.0300642 -0.00667734 -0.688603 -0.0144377 0.780795 0.846367 0.325072 0.0353576 -0.422425 -0.216016 -0.194875 -0.831445
on -1.38689 0.188731 0.307907 0.0217264 0.0897273 0.608425 0.669789 -0.395304 -0.379875 -0.689337 0.0350342 0.117889 -0.360073 -0.886873 0.322684 -0.24355 0.0264147 0.0577345 0.335831 -0.486987 0.0750029 0.809586 0.104042 -0.211954 0.0998923 -0.188093 0.276641 0.257279 0.916975 0.204353 0.430474 0.0659853 -0.134495 -0.646506 0.2903 -0.0488204 1.30927 0.126259 0.0571891 -1.57729 -0.287119 0.360684 0.0151594 -0.0772121 -0.696459 -0.343362 -0.293064 -0.171126 0.175066 -0.62717 -0.44305 0.0190324 -0.0772478 -0.21667 0.000192727 0.0300837 -0.0613448 0.0554405 0.24777 0.353716 -1.18605 0.14634 0.0167641 -0.613889 -0.116636 -0.591314 -0.0334588 -0.225961 -0.0755751 0.436118 0.0352859 0.778047 -0.756267 -0.170363 -1.306 -0.0481705 -0.216173 0.367789 0.373177 -0.251346 -1.07373 0.350606 0.368141 -0.0122657 -0.382975 1.32196 -0.179997 0.649287 0.631789 0.191959 -0.235857 -0.13798 0.0417958 -0.192072 -0.089628 0.172841 -0.386161 -0.16885 0.53636 -0.557809 -0.332772 -0.854331 0.0945863 0.462479 -0.2092 0.184748 0.216152 -0.0669079 -0.037134 0.0460034 -0.227188 -0.577191 0.476607 -0.461054 -0.665638 0.272452 -0.0579277 0.0511866 0.286841 0.0575245 0.542696 -0.0958595 0.43488 0.15381 -0.0169771 -0.455188 -0.0509036 0.114374
all 0.0389921 -0.302079 0.00114187 -0.168291 -1.37845 0.648485 -0.0255645 -0.62056 -0.189907 -0.396375 -0.229857 -0.743402 0.787456 0.675704 0.209545 0.454402 -0.407147 0.193421 -0.0898063 -0.0662849 0.0229558 0.0306215 0.162399 0.182625 1.12763 0.0156463 -0.0192945 -0.102914 0.76662 0.815236 0.488534 -0.140836 -0.0661956 0.252091 -0.70739 -0.11239 0.316444 0.128894 -0.158918 0.314035 0.0170045 -0.0739213 0.181254 -0.705908 0.111181 0.569274 0.151771 -0.16397 0.138577 -1.03737 0.00559702 0.176938 -0.303106 -0.177392 0.622196 -0.336177 0.081286 -0.833474 -0.0381713 0.149139 0.0560342 0.483274 0.374752 0.0491123 -0.595942 0.4659 -0.0482282 0.448986 0.203786 0.764516 0.239247 -0.423363 0.0988314 0.349029 -0.644148 -0.348632 0.65531 -0.97293 -0.132328 -0.404648 0.36396 -0.20276 0.060122 0.903937 0.0737127 0.709157 0.00648842 0.146972 0.112895 -0.10244 -0.00122188 0.24616 -0.203674 -0.277814 0.453796 0.441231 -0.190322 -1.29323 -0.352407 0.641989 0.207836 -0.132183 0.686308 0.730183 0.764903 -0.723718 -0.00697895 -0.0148509 -0.635513 -0.0152995 -0.0162377 -0.0722435 0.139315 -0.12867 -0.632314 0.252761 0.0496877 -0.345 0.13724 -0.323857 -0.511441 -0.145875 0.212184 0.0319759 0.0671254 0.0769322 -0.196398 0.675439
this 0.0384506 -0.368958 0.246951 0.281366 -0.380556 0.866741 -0.408393 -0.300248 -0.232181 0.377985 0.375547 0.25673 -0.180028 0.259593 0.066536 -0.716819 -0.670102 -0.877224 -0.468831 0.0734234 0.0296411 0.0701696 -0.681845 -0.994061 0.150115 0.57396 -0.0929692 0.461876 -0.393073 0.0611923 -0.0634657 -0.208913 -0.376136 0.190609 -0.231129 -0.00128492 0.0371487 0.32309 0.0571927 -0.155542 0.395439 0.486382 0.25717 -0.4482 -0.186784 -0.643201 -0.128519 -0.626525 0.190659 -0.186861 1.05502 -0.364774 -0.271572 -0.021153 -0.427407 0.00102175 -0.33534 0.0603964 0.194202 0.00687598 0.0401169 0.0751696 -0.0506414 -0.560684 0.150024 1.494 -1.05371 -0.166259 -0.411379 0.0442538 0.113809 0.406503 -0.373606 0.0788789 0.366693 -0.0585196 -0.249035 -0.113502 0.29106 -0.121347 0.757088 -0.0330768 0.0525699 0.0325809 0.400024 1.47377 -0.687158 0.301891 -0.230062 0.0388709 -0.0354964 0.214166 -0.00364155 -0.108022 -0.804066 -0.606981 0.569531 0.16651 -0.849318 0.168088 0.19593 -0.0822957 0.239126 0.275364 0.0402913 -0.365256 -0.0336083 0.0598151 0.106493 -1.07313 0.166481 0.721603 -0.299176 -0.383438 0.573315 -0.0825627 0.323501 -0.113287 -0.308331 0.237121 -0.863037 0.257927 0.191327 -0.263365 0.0892568 -0.0527525 0.263316 0.207367
had 0.269771 -0.201537 0.77936 0.0684885 0.386887 0.209318 -0.629559 0.0320387 0.0263668 0.0718499 0.591325 -0.0047834 -0.291386 0.0312383 0.0795386 0.393946 -0.228353 -0.609954 0.112138 0.488406 0.283586 -0.12693 0.258622 -0.00738157 -0.130956 -0.25793 -0.0593264 -0.0710957 0.00203868 0.382341 -0.0340125 0.0438712 -0.0236659 0.970736 -0.196882 -0.193079 0.00341687 -0.0258424 -0.0318492 -1.1136 -0.262158 -0.924996 -1.05561 -0.0768171 -0.429301 1.33241 -0.0214314 -0.205343 -0.782501 0.138624 0.483173 -1.42376 -0.223497 0.244416 -0.529088 0.377075 0.492334 0.0370483 -0.489746 0.997782 0.240683 0.219905 -0.0652252 -0.278524 -0.00627209 -0.486344 -0.357933 -0.268427 0.073235 -0.0917991 0.242868 -0.0907621 0.126838 0.142229 0.00357227 0.302622 -0.179461 -0.157465 0.579957 0.664345 0.16523 -0.120595 -0.0908393 -0.0504119 -0.0383772 1.21143 0.423978 0.157156 0.23411 -0.267345 0.130512 -0.207403 0.848308 -0.429563 -0.514851 0.282576 -0.063259 -0.196614 -0.588447 1.27477 -0.158837 0.437013 0.225074 -0.511098 -0.496961 0.90933 0.54483 -0.0463852 -0.434615 -0.97497 -0.664417 0.0063147 0.25607 -0.129055 -0.41954 0.283163 -0.667062 -0.371747 -0.75255 0.295656 -0.449381 0.564935 0.0763336 0.0226887 0.300749 0.381286 -0.0473175 -0.543967
for 0.0230277 -0.0577309 0.273011 -0.0217023 0.0329414 -0.0407631 -0.0455309 -1.16669 0.0162904 -0.623764 -0.191856 -0.0829685 -0.189544 -0.088809 -0.286506 0.0742916 -0.00138721 -0.00202084 0.363935 -0.142352 -1.7833 -0.294084 -0.496533 -0.0559841 0.294323 -0.27875 0.534489 0.0784513 -0.149377 -0.170727 0.356982 -0.150299 -0.0284233 -0.0946485 -0.96722 -0.488225 -0.0127288 0.064549 -0.242146 -0.311902 0.244766 0.0725342 0.31003 0.0582767 -0.190107 0.124663 -0.189695 -0.32853 -0.289426 -0.658847 0.0112183 -0.202695 -0.53698 0.0805327 -0.330217 0.167546 0.584982 -0.0681238 0.820573 -0.500428 -0.803934 0.261882 0.137749 0.0300846 -0.157307 0.0994169 -0.696866 0.114257 0.00891483 -0.285812 -0.257828 -0.36108 0.424468 -0.567399 0.00389326 -0.294013 0.226117 0.681821 -0.182362 0.278377 -0.687474 -0.405362 -0.131414 -0.0186849 -0.218 -0.163263 -0.459973 -0.442922 -0.693524 -0.126855 0.0713138 0.0490342 -0.102182 -0.512411 -0.155996 0.624249 -0.280751 0.400009 0.624157 1.66032 -0.223218 0.112169 -0.650827 0.0444916 -0.203726 -0.215589 -0.714969 -0.142106 -0.113497 -0.31378 1.27373 -0.612604 0.152212 -0.272913 0.221402 0.281961 0.522133 0.235003 0.116359 0.426773 0.158016 -0.013104 -1.12883 -0.349404 0.537374 -0.132269 -0.100846 0.260772
be -1.62252 0.960361 0.131438 -0.675187 0.177917 0.560063 0.690902 -0.236739 0.0167301 -0.47411 0.294725 -0.434041 -0.422584 0.710225 -0.0364523 0.15692 -0.764938 0.00377569 -0.299674 0.0261228 0.320752 0.674648 0.307621 0.294187 -0.0260534 -0.44704 0.354222 -0.0624217 -0.211956 -0.162065 -0.237941 -0.0132917 -0.242949 -0.286965 0.276218 1.29733 0.0464808 -0.0270747 -0.624857 0.706474 -0.276383 0.61879 0.278417 -0.02656 -0.42704 1.07439 0.14265 -0.473292 0.189759 0.371419 0.098727 0.292205 -0.102569 0.476128 -0.553839 0.24951 0.241962 -0.201772 -0.0202829 0.22931 0.0130655 0.23741 0.629676 0.0911284 0.480932 1.23609 -0.493367 0.0891998 -0.250666 -1.06896 0.140682 -0.723475 -0.467877 0.393134 -0.285647 -0.0232655 -0.144632 -0.251941 -0.0713235 0.363521 -0.761752 0.257114 -0.0715871 0.0573235 0.0747692 0.00358397 0.128431 0.741942 -0.0634149 -0.00550142 0.278454 0.130379 0.377191 1.43972 0.147258 -0.277937 -0.265004 -0.856257 0.17125 0.262379 0.115043 0.334793 -0.0228392 0.040951 -0.405402 -0.508605 -0.133308 -0.0488565 -0.513873 0.244062 0.263469 -0.0146621 -0.831245 0.768921 -0.161322 -0.217554 0.720392 -0.26006 -1.0577 0.193949 0.0455567 0.612852 -0.0454172 -0.463238 0.470317 -0.190571 0.176853 0.164483
not -0.209962 0.0165889 0.167073 0.202132 0.386759 0.563747 -0.102216 -0.502851 0.0285237 -0.0687732 0.148162 -0.13822 0.315187 -0.432811 -0.117666 0.0644445 0.641869 -0.104515 0.0758901 -0.0414732 -0.000363704 -0.0562562 0.0503045 0.365802 -0.115153 -0.557063 -1.08883 -0.32796 -0.527314 0.641658 -1.31336 -0.156079 0.0956972 0.389992 0.0766052 0.671263 0.849554 -0.209536 0.598024 -0.326743 -0.186477 0.644112 -1.22243 -0.650469 -0.303323 0.569538 0.237502 0.0562798 0.011366 -0.466633 -0.0237161 -0.0779255 0.851243 -0.0415521 -0.470916 0.0917535 -0.23842 -0.263355 0.40198 -0.282577 -0.10945 0.515689 0.135472 -0.0702276 0.137744 -0.366004 -0.0170924 -0.365523 0.00102612 0.240962 0.547228 -0.920524 -0.0897237 0.388649 -0.368145 1.02347 -0.103834 0.564923 -0.413284 -0.0198092 -0.390391 0.420396 -1.22815 0.053521 0.0536635 -0.360571 1.40208 -0.385155 -0.653807 -0.258906 -0.103494 -0.519083 0.344154 0.403936 -0.142893 -0.00878522 -0.146795 0.0431453 -0.386188 0.151515 1.11162 -0.50603 -0.00327233 0.21852 -0.256438 -0.844762 -0.120862 0.30865 -0.00761685 0.0260582 0.0187187 1.0582 -0.784706 0.303547 1.5016 0.00843068 0.0226441 0.47553 0.113894 0.705797 -0.00364022 0.25365 -0.262018 -0.179031 0.885232 -0.611641 0.640624 -0.130086
or 0.0809614 -0.192599 0.0628494 -0.0158397 0.0119334 -0.0755519 -0.371593 -0.131853 -0.289224 -0.34177 -0.412807 0.176142 -0.308895 -0.317862 -0.155718 0.0897711 -0.291807 0.00402935 -0.503667 0.132006 -1.18929 1.1557 0.380928 -0.889171 -0.0463254 -0.0836148 -1.00192 0.128933 -0.332126 -0.0938421 0.555904 -0.0764012 1.15518 0.082867 -0.112775 -0.514046 0.515005 -0.132344 -0.109552 0.238929 -0.462988 0.129536 0.0706708 -0.0190465 -0.215385 0.162783 0.0430208 -0.0430479 0.367071 0.544498 -0.418854 -0.19284 0.167147 -0.130646 -0.00899895 0.604227 -0.0290169 0.328588 -0.110416 -0.234578 0.382847 0.033954 -0.0620761 -0.0890466 -0.438316 0.654267 -0.529906 0.164227 -0.150784 -0.00915482 -0.726553 -0.0235053 0.109801 0.191866 -0.343845 -0.322255 -0.844361 0.463015 -0.0588694 -0.158952 -0.10096 -0.0199175 -0.357218 0.0176276 0.056136 1.36926 0.365767 0.201055 -0.0727788 -0.300793 -0.691511 -1.01975 0.0548425 0.459124 0.48542 -1.96259 0.856354 -0.0608077 0.1459 0.418185 -0.795551 0.441645 -0.110964 0.210187 0.470853 -0.0772564 -0.038972 0.219887 0.301294 0.097585 -0.140631 0.0154858 0.306981 0.694856 -0.0489496 0.210626 0.0279235 -0.389065 0.476209 0.00270319 -0.027416 0.388816 0.0977146 -0.157212 0.0980686 -0.192738 -0.0896293 0.300975
so -1.08327 -0.214969 0.538956 -0.886307 -0.351477 1.59277 0.0895723 0.548726 -0.464065 1.96487 0.114103 -0.0818556 -0.109577 0.0769643 0.341111 0.314379 -0.346197 -1.12382 -0.0492061 -0.391158 0.25435 0.869249 -0.124543 0.555222 0.400885 -0.00340859 0.499945 0.179321 0.883939 -0.137774 -0.485099 -0.0519179 -0.0659937 0.224925 -0.169193 0.0268949 0.214802 -0.338304 -0.132635 -0.0185159 0.0906396 -0.365542 0.0364945 -0.146276 0.829499 0.183177 0.0688054 0.021051 0.402662 0.139428 -0.207335 0.176176 0.767139 -0.690389 -0.0384057 0.257324 0.0188978 1.05871 0.217549 -0.114668 -0.387697 0.216301 0.0289283 -0.0789126 -0.615133 -0.503347 0.13947 -0.0514866 0.346809 0.0583877 0.269113 -0.15167 0.0894202 -0.599642 0.381166 0.34105 -0.583559 -0.074495 0.857284 -0.260964 0.363399 -0.195824 -0.236324 -0.949009 -0.829024 -0.292135 -0.795606 -0.903821 0.0836226 -0.0346777 -0.12713 -1.02688 -0.306807 -0.187056 -0.0111751 -0.122441 -0.63382 0.0556925 -0.0787481 0.0343521 0.0748864 0.92354 0.258185 -0.585926 -0.710199 -0.167619 0.271052 0.0220939 0.0137939 0.00758113 0.0794922 -0.561789 -0.503169 -0.0882368 0.113025 0.524936 0.610275 1.0423 -0.49617 -0.204027 -0.081278 -0.0410524 -0.92035 0.170048 0.507746 0.110254 -0.425501 -0.178984
very 0.224497 0.0064003 -0.12884 -0.529427 0.0204595 0.704707 0.0649254 0.581634 0.0165805 0.0259221 0.063368 -0.462104 0.135313 -0.260194 0.544887 -0.0620622 0.436552 0.644615 0.0317819 -0.131441 -0.974179 -0.0862659 -0.420687 -0.798653 0.536906 0.296325 -0.0468905 0.149619 0.426475 0.0622329 -0.880335 -0.0844342 0.0790792 0.0254193 -0.153911 -0.0253963 -0.446351 -0.0571185 -0.182542 0.184351 -0.151411 0.24277 0.0782173 -0.653953 0.106431 -0.0846255 1.09372 -1.48303 0.414751 -0.967312 0.0859376 -0.498154 0.386334 -0.0865082 0.472963 -0.0618325 0.805795 -1.02615 -0.282018 -0.901865 0.480476 -0.706032 0.530541 -0.0727409 0.055175 0.0423651 -0.296595 0.176452 -0.179417 0.0994671 0.0499074 0.281671 0.0204312 -0.243881 -0.201408 0.857868 0.0428647 -0.432384 0.450669 0.0498858 0.653641 0.1485 -0.0441573 -0.568106 0.0690648 -0.314497 0.240301 0.0205526 0.680279 -0.113042 1.07444 0.0908555 -0.0350038 -0.0296899 -0.123899 -0.0179773 -0.49022 -0.702661 0.314202 -0.191556 -0.0635924 0.1478 0.131961 -0.586522 1.23729 0.687575 0.210303 0.0893703 -0.087172 -0.67348 0.117281 -0.0985029 0.120965 0.4725 -0.0674945 -0.203722 -0.0996719 -0.106483 0.217188 -0.386492 0.957687 0.456109 -0.418591 0.0939299 -0.369227 -0.775538 -0.248667 -1.53022
but 0.677228 -0.359048 0.381647 -0.0758716 0.440323 0.155135 0.345906 -0.403664 0.260044 1.18291 -0.212746 -0.190556 0.124672 -0.401874 0.146765 0.186984 0.927407 -0.0908468 0.0488998 -0.785246 0.887229 0.120658 0.637858 0.0589608 -0.443785 0.00466271 -0.105455 0.0145335 0.192844 -0.0208468 -0.720811 -0.397505 -0.173188 0.0975747 -0.464182 0.89311 0.195396 0.0161261 -0.212305 0.0452666 -0.41258 0.110129 -1.05385 -0.0455646 0.158926 0.536351 -0.135644 0.127271 -0.117149 0.121415 -0.0182001 0.751396 -0.0298746 -0.709058 0.917717 -0.0181015 -0.959078 -0.899732 -0.103652 -1.19611 0.177236 0.230506 0.586665 0.398821 -0.120383 0.595896 -1.31688 0.0324123 -0.0429921 -0.123029 -0.184729 -0.224224 -0.939796 0.110871 -0.500924 -0.0983829 -0.359164 -0.00256749 -0.501062 1.30579 0.359768 -0.31841 0.0306836 0.199087 -0.152859 -0.336154 -0.667409 -0.113812 -0.189094 0.0200428 0.109422 0.130553 -0.867444 -0.200358 0.44015 -0.0541212 0.192632 -0.139846 -0.268576 0.198228 -0.145952 -0.202438 -1.45463 -0.660388 -0.0998691 -0.132033 -0.0728815 0.400759 0.524011 -0.165631 0.431894 -0.232003 0.0450449 0.24365 0.297469 0.4583 -0.745251 0.193878 -0.0735611 -0.286368 -0.235928 -0.127064 -0.0521775 0.531479 -0.438997 0.565559 -0.631254 0.0896002
is 0.0452505 0.122882 -0.29043 0.217767 0.745066 0.173991 0.267455 -0.0172873 -0.00411427 -0.514987 -0.260991 0.278781 0.0689646 0.341018 -0.307256 0.341549 1.01159 0.0227702 0.120956 0.05674 0.315695 -0.0516011 -2.18973 0.276357 0.0441073 0.703801 -0.0301745 0.458537 -0.254332 -0.206699 -0.555285 0.374877 0.433645 0.109564 -0.225929 -0.130339 0.162346 0.0730489 -0.329492 -0.563459 0.141867 0.0191096 0.311649 0.0380456 0.115269 -0.153615 0.658463 -0.30734 -0.667992 0.0771003 0.102165 0.174163 -0.105093 0.323939 -0.0497466 0.318211 0.0833378 0.0849794 0.222574 0.0432459 0.218549 -0.572419 -0.0240761 -0.510467 -0.440758 1.45511 0.206969 0.385779 0.158511 0.464263 -0.090477 0.419632 -0.173586 -0.0911339 0.221756 0.36691 -0.0307984 -0.0732248 0.0861818 -0.297368 0.279519 -0.457647 0.0262665 0.00154989 0.0919158 0.31901 0.497633 -0.00679587 -0.937921 0.0587722 -0.394359 0.0451163 -1.11631 0.264211 0.0718848 -0.381208 0.363404 0.184777 -0.00397334 -0.179255 -0.219393 -0.990563 -0.0557835 -0.507717 -0.156137 0.0248295 0.983954 -0.0890123 -0.428618 0.0403946 0.449402 0.460125 0.0926052 0.642553 -0.399703 -1.14693 0.815537 -0.0796434 -0.356106 -0.286087 0.384524 -0.372935 0.143716 0.160392 0.635275 0.113513 -0.434277 0.419924
little 0.55095 -0.329851 0.939688 1.3993 0.0796984 0.314467 -0.132886 -0.00365437 0.337041 -0.213792 -0.885076 -0.00221871 0.707987 -0.0112295 0.224885 0.323678 -0.363683 -0.24271 -0.156009 -0.125013 0.234777 0.128809 0.223239 -0.0703174 -0.187732 0.722309 0.394378 0.027932 -0.133327 0.795589 -0.0516479 -0.271485 -0.0373605 -0.219213 0.109582 0.289325 0.233089 -0.240686 -0.395439 -0.366258 -0.0362247 -0.030617 0.0161175 0.699226 -0.532314 -0.0110733 -0.389289 -0.588484 0.143331 -0.0783317 0.630077 -0.0493936 0.449475 0.159802 0.592086 -0.198569 0.147223 0.515808 0.681589 -0.261096 -0.384481 0.108726 -0.401169 0.348429 0.845771 -0.273481 0.151985 0.337278 0.623956 -0.144961 0.299452 -0.244943 0.0921122 0.212733 -0.895677 -0.247242 0.350901 -0.509897 0.110867 0.0526396 -0.421311 0.336587 0.220495 0.116572 0.399474 1.12005 0.16869 0.790008 -0.0929343 -0.242904 1.47312 -0.252841 0.0176872 -0.131549 0.0657918 -0.00379485 -0.922971 0.831262 1.06162 0.462488 -0.566255 -1.00197 0.467949 0.0344519 0.255921 0.289777 0.984123 -0.463271 0.165479 0.18157 0.238043 -0.245747 0.222017 0.409863 0.118722 -0.938514 -0.00036525 -0.558027 0.205952 -0.499581 -1.05433 -0.153253 -0.18652 -0.219475 -0.607642 0.282984 0.254673 -0.752224
‘i -0.0163961 0.759115 -0.0749736 -0.378715 0.0635683 -0.0434837 -1.15311 0.0923584 -0.15997 0.30854 0.289861 -0.0656193 0.194433 -0.218906 -0.310295 0.776183 -0.472731 0.219661 0.141306 0.115942 0.558446 -0.284757 -0.713441 -1.06803 -0.0223525 -0.16878 -0.181725 0.837895 1.53506 -0.783614 -0.756242 -0.723242 -0.190448 -0.101451 0.105113 -0.620451 0.138427 0.508491 -0.312281 -0.0687323 -0.139831 -0.347648 0.45287 -0.579612 -0.104611 0.284206 0.188039 -0.0402918 0.0267967 0.184529 0.813543 -0.18285 -0.627278 0.292227 -0.332348 -0.195212 -0.433778 0.885194 0.208319 -0.159227 -0.173241 0.21535 -0.0452455 0.0202265 -0.397725 0.132314 0.0851603 -0.310663 -0.447409 -0.0665536 0.279225 0.114851 0.0882907 -0.668355 -0.145708 -0.174148 1.20286 -0.14606 -1.08371 -0.133021 0.755312 -0.491515 0.0685597 0.0946523 0.0178204 0.334333 0.235459 0.667061 0.0810789 0.999922 0.116786 -0.0256775 0.0352833 0.448743 0.826872 -0.341177 -0.669232 0.240702 1.39276 0.874743 0.314404 -0.0305688 0.0842614 -0.0317046 0.422868 0.562517 -0.0832272 0.485037 0.650175 0.034245 0.145918 0.592342 -0.406975 0.365398 0.700971 -0.0861422 0.10046 1.458 -0.848573 0.163822 0.436073 -0.386584 -0.219695 0.135985 -1.1851 -0.832215 0.0339106 -0.784619
they 0.270057 0.131393 -0.266041 0.0571998 0.144595 -0.228495 0.164616 0.213305 -1.46094 0.23805 -0.236305 -0.395337 -0.189429 0.452924 -0.574381 -0.160522 -0.184673 0.10003 0.16313 -0.685814 -0.0993104 0.618086 0.270253 -0.36565 0.0229127 0.100101 0.344669 -0.303392 0.377338 -0.0356261 -0.622392 -0.00878644 0.0384893 0.0230659 0.904541 -0.503476 1.23627 0.86683 -0.209062 -0.0736104 0.0861203 -0.160317 0.213655 -0.0462031 -0.0818407 0.483042 0.773669 -1.3004 0.318089 -0.0179731 0.133387 -0.426093 0.0456317 -0.596749 -0.00605381 -0.0993873 0.000741397 0.520053 -0.0775592 0.23705 0.00626202 -0.257116 0.54734 -0.11961 -0.244605 0.125432 -0.268329 0.192988 0.0201922 0.00943787 0.163467 -0.892663 0.356656 0.0515275 -0.478875 0.21027 0.673863 -0.154385 -1.28449 0.0766573 -0.162396 -0.300396 0.886992 0.301692 0.533421 -0.0695812 -0.756626 -0.110021 0.45253 0.39139 0.0157302 -0.888904 0.296182 -0.00663712 0.069011 0.113879 -0.946178 -0.10541 0.04402 0.060606 -0.534451 0.217988 0.0664162 0.306194 -0.295085 -1.28958 -0.268965 0.185484 -0.290223 -0.146148 0.135358 0.0897075 -0.123586 -0.856397 0.0137611 0.0999401 -0.507254 -0.32599 0.189298 0.189609 0.745632 -0.160187 0.502205 0.58316 0.741729 0.3839 -0.390188 -1.18612
out 0.493324 0.627252 0.119431 -0.270424 -0.64664 -0.0220458 0.286215 -0.169704 -0.785867 1.05801 0.0741649 -0.198939 -0.317186 0.0907485 0.0268726 0.365116 -0.13102 0.208658 0.878353 0.604376 -0.264512 -0.0122328 -0.16966 -0.63606 -0.481278 0.376172 -0.302193 -0.986732 0.29232 -0.178209 -0.054619 1.08494 -0.199271 0.353349 0.313457 0.552172 0.097949 -1.46284 -0.0915928 0.509542 -0.366915 0.603229 -0.447139 0.58823 0.0422203 0.236155 -0.389414 -0.630019 -0.895365 -0.378217 0.127104 -0.0954859 0.0782276 -0.488925 0.202812 0.605029 0.375104 0.0603236 -0.00301156 0.547493 -0.171984 -0.2201 0.714102 0.0151124 0.242381 -0.203645 0.0410511 -0.0164258 0.0718818 0.616884 -0.193706 -1.34034 0.0434533 -0.55815 0.014137 -0.345566 -0.279778 0.632247 -0.19114 0.0195669 0.321383 -0.759322 -0.239006 -0.202406 -0.0509372 -0.848768 -0.529474 0.161896 -0.112373 0.736633 -0.0967851 0.148802 -0.105621 -0.500372 -0.856787 -0.34413 0.451851 0.156287 0.209285 0.078006 1.19152 -0.405904 -0.295137 0.547793 -0.209372 -0.620067 -0.199813 0.0704827 0.0713922 0.1661 -0.408752 0.0741685 0.826433 0.00473202 -0.0620477 0.200033 -0.519242 0.0600878 0.248396 -0.537737 0.678181 0.391551 -0.737793 0.362356 -0.114228 0.183247 -0.163558 -0.586799
he -0.79225 -0.559881 -0.142291 0.354777 -0.436759 -0.00649195 -0.0378555 -0.278443 0.112635 -0.167956 0.787551 -0.14153 0.381171 -0.26532 0.540404 -0.867014 0.730043 0.0508052 -0.715893 -0.179541 -0.0889089 -0.567773 -0.014388 0.199449 -0.216283 0.787196 0.83961 0.237182 0.57332 -0.0065445 0.0727161 -0.119946 -0.555847 0.644171 -0.26016 -0.303087 0.974526 -0.30167 -0.735222 0.471333 -0.0660656 -0.0113565 0.213877 -0.492311 -0.639692 0.336552 0.140053 0.370203 -0.069902 0.588513 0.0816697 0.0270864 -0.0968616 0.0133639 0.205809 0.170573 0.300297 0.0404314 -0.544088 0.0388911 -0.472097 -0.169805 0.177234 0.499677 0.225917 0.226951 0.419999 0.967624 -0.142052 0.0798689 -0.152308 -0.718074 -0.0163428 0.273787 -0.321475 -0.354038 0.255511 -0.42222 0.157248 -0.0158639 -0.289095 -0.153462 0.114619 -0.708473 -0.0296595 -0.696923 0.63487 -0.14555 -0.725156 -0.516804 -0.395174 -0.814006 -0.197289 -0.122522 -0.37362 0.12289 0.396517 -0.800969 0.912429 -0.0143434 0.978465 -0.0930453 -0.475475 0.0266565 -0.70538 0.927176 0.0924943 0.0565803 -0.0425727 0.410981 -0.431993 -0.33487 0.198622 0.110118 0.0188874 0.424139 -0.0975328 0.49173 0.126811 -0.271713 -0.71192 0.956402 0.370317 0.909604 -0.113837 -0.499925 0.0184324 -0.0556637
down 0.224912 -0.314399 0.154307 0.0950415 -0.196893 0.165311 0.328847 0.0735913 -0.370205 0.459388 -0.327176 0.31196 -0.546132 -0.611619 0.165323 0.0935615 0.0206663 0.187682 0.577272 -0.526552 0.711501 -0.097923 0.22529 0.93002 -0.0146588 0.919923 0.0829507 1.82584 1.42995 1.29414 -0.0819997 -0.22264 0.591267 0.420979 0.198281 -0.0722632 -0.142781 0.355814 0.0259529 -0.347391 0.165701 0.699936 -0.0553196 0.509987 -0.533409 0.74402 0.10437 -0.411136 -0.541789 0.461316 0.136236 -0.277398 0.403559 0.0667063 -0.19482 -0.00807639 -0.302452 -0.435055 -0.208174 0.806154 -0.324902 0.134237 1.07076 -0.0641329 0.345546 1.49785 -0.0789566 -0.340313 0.151859 0.655753 -0.107737 0.0905373 0.340196 -0.0932077 0.669155 -0.292222 0.704636 -0.123884 -0.587477 -0.185797 -0.141142 0.166881 -0.796347 -0.0663046 -0.253636 0.0524737 -0.146123 0.0439261 0.858912 -0.502783 -0.0294129 0.313452 1.14718 -0.165155 -0.00277617 -0.172293 -0.47626 0.0989128 0.449025 0.161416 -0.0706233 0.330501 -0.193892 0.11683 -0.417539 0.0668971 0.102597 0.168388 -0.0172683 0.0592143 -0.25184 -0.4599 0.0197653 -1.35674 0.800356 -0.365398 -0.0575772 -0.499051 -0.588644 -0.071249 -0.0246671 0.0218982 0.325665 0.258991 -0.426383 0.276218 0.0437442 -0.111883
about -0.20383 0.0600673 0.200136 0.340525 -0.651101 0.324756 0.741943 0.0542763 -0.368516 -0.232695 -0.115605 -0.102695 0.784785 0.407557 0.316123 -0.462727 -0.250579 0.0482857 -0.0679844 0.231323 -0.789897 0.225224 -0.654764 -0.43215 -0.537538 0.808899 -0.41776 -0.328159 -0.501621 -0.21498 0.56073 -0.167138 0.264955 0.0988365 -0.291721 -0.0769962 0.0655455 0.833748 -0.276596 -0.0270574 0.129585 0.568424 0.795864 -0.36259 0.955847 0.75436 0.105466 0.0752992 -0.96528 -0.528177 0.405823 0.152628 0.213613 -0.706207 0.000786742 -0.219509 0.305608 0.0580067 0.820475 -0.349584 -0.0411903 -0.721014 -0.729519 0.282269 -0.441817 -0.0341455 0.0913088 -0.366527 -0.28502 -0.117986 -1.13506 -0.235542 0.243961 0.15849 -0.128651 -0.712985 0.331492 -0.110536 0.142991 1.78224 -0.299001 0.037326 -0.250479 -0.234668 -0.0819607 0.40759 0.223084 -0.614709 -0.233723 -0.638902 0.525515 0.537473 0.0905143 0.0753907 0.220201 0.039005 0.419423 0.346459 -0.479705 0.520332 -0.862796 0.296515 0.081055 -0.0263859 -0.079424 0.0276832 -0.148485 -0.0834003 0.427796 0.487754 -0.462749 -0.403228 -0.146147 -0.166258 -0.332885 -1.10216 -0.0932958 0.582831 -0.79449 -0.452095 0.638385 -0.497132 0.832105 0.802714 0.0100231 0.0586323 0.0755643 0.242673
up -0.5956 -0.542552 -0.445996 -0.685321 -1.07067 0.323576 -0.197048 0.00614346 0.0138559 0.0455139 -0.530051 0.628076 0.395263 0.519337 0.536184 -0.182566 0.326472 -0.481423 0.559422 0.413994 0.0646763 0.0024122 0.199093 1.07763 -0.349031 -0.0685463 0.827485 -1.26998 0.228354 -0.402236 -0.088193 0.056837 0.000943363 0.115793 -0.16673 -0.408418 1.71716 0.222441 -0.444992 -0.692403 0.321095 0.0959367 -0.835321 0.247746 0.0773459 -0.381525 0.390765 -0.134433 0.217455 -0.926905 0.068714 -0.748997 -0.0292141 -0.187017 -0.321969 0.129147 -0.437582 -0.907348 -0.0668504 0.831393 -0.0753759 0.116044 0.123372 0.185608 -0.89493 -0.202908 -0.405605 0.444618 -0.456163 0.188413 -0.82033 -0.563842 0.0830619 0.0909839 0.521914 -0.457561 0.00937393 0.658133 0.918593 -0.428416 -0.287296 -0.219647 0.310761 0.436442 0.425981 0.109927 0.119895 -0.036847 0.104743 -0.326796 0.781965 0.606344 0.223931 -0.296711 -0.0155274 -0.545709 0.270442 1.14741 -0.421445 0.796571 -0.184616 -0.621048 -0.166932 -0.181286 0.346116 0.406368 -0.959826 -0.643825 0.478932 -0.0164981 -0.114058 1.36317 -0.165351 0.425039 0.319337 -0.365231 0.4137 -0.000247499 0.682629 0.14014 -0.495003 -0.0104259 0.406582 0.290577 -0.429996 -0.0717054 -0.0583536 -0.230798
one 0.00535032 0.297373 0.111353 1.02528 0.112289 -0.868927 -0.0612348 1.35714 0.280549 0.543977 -0.00825221 0.276175 0.944395 0.734776 0.241579 0.71074 0.555253 0.0776963 0.536695 -0.563915 0.35614 1.11367 0.0909973 -0.233833 -0.306672 -0.115011 0.596862 0.0235259 1.25591 0.866355 -0.163189 0.496597 0.513962 0.712157 0.0364902 -0.104571 0.169123 0.733691 0.364725 0.238535 0.0760816 -0.143311 0.0682058 -0.768291 0.206995 0.0747954 -0.040837 0.505773 -0.217377 0.349365 -0.330825 -0.715616 -0.100885 0.717787 0.132889 0.473118 0.823005 -0.198193 0.358821 0.141247 -1.0903 -0.340928 0.541667 0.0654664 0.656471 -0.123356 -0.0537993 0.281321 0.631751 0.0688276 -0.0436654 -0.613663 0.214466 -0.921683 0.465394 -0.0265904 -0.0279088 0.174119 0.812167 0.132498 0.283746 0.357214 0.119122 -0.261814 -0.0233316 -0.21397 0.141646 0.245402 -0.195674 0.258264 0.23557 0.502566 -0.146571 -0.51675 0.166434 -1.09962 -0.539064 0.405678 -0.579412 0.91149 0.194261 0.163356 -0.113624 -0.0928711 0.0784752 -0.128538 0.0941439 0.0899315 1.02357 -0.00814968 0.649825 0.0992973 -0.103612 -0.170759 0.918765 0.49675 0.0196183 -0.682748 -0.153629 -0.619423 0.801793 0.104134 1.09014 -0.216593 -0.260803 0.622824 -0.120037 0.134759
what 0.499427 0.915289 0.0504715 -0.306515 -0.439044 1.07791 -0.428669 0.420715 0.355917 0.172901 0.584801 0.00146121 0.152647 0.758975 -0.646237 0.0639824 -0.380251 -0.344474 0.17056 0.610507 -0.10601 0.520845 -0.102934 0.621044 -1.00316 0.476539 -0.688544 1.266 -0.076117 -0.25432 0.0526917 0.221623 -0.766464 0.0298556 0.0686019 0.0544848 -0.0757546 -0.0225763 0.0993321 0.100062 -0.217122 -0.110917 0.0481647 -0.155033 -0.0614745 -0.356749 -0.0339899 0.45783 0.232744 -0.539455 -0.0999694 -0.198534 -0.257247 0.539258 0.563741 -0.917283 -0.264887 0.322201 -0.514188 0.415846 0.0380244 -0.461417 -0.307215 0.729469 -0.37423 -0.162494 0.0404849 -0.123823 0.0664251 -0.111955 0.0348184 0.0876246 -0.069023 0.921899 0.0239751 0.722977 0.137058 0.231947 -0.325694 0.562242 0.222738 0.4726 0.197844 -0.179521 0.29415 -0.0360971 -0.349641 -0.896739 -0.254647 0.00775372 0.471005 -1.25759 0.0891512 1.44938 0.649718 0.0487485 -0.419894 0.0609173 0.195351 0.499833 0.723478 -0.423419 -0.23468 -0.346693 0.581685 -0.392934 0.540253 0.0142293 -0.750844 0.250522 0.2954 -0.465883 0.138202 0.252036 -0.366037 -0.577282 0.645688 -0.219409 -0.168057 0.445428 0.546347 0.870196 0.062102 0.0787711 -0.0751583 -0.0240526 -0.655621 -0.451712
if -0.467894 1.92576 -0.424296 0.559786 -0.551078 0.0327158 -0.115186 -0.5199 0.436504 -0.498572 0.485298 0.0751528 -0.166798 0.353762 -0.0110574 -0.39318 -0.0377537 -0.32582 -0.75447 -0.41519 -1.13651 0.347374 -0.0233539 0.0912705 -0.0927895 0.113297 -0.0176092 0.0628507 0.52104 -0.249753 -0.0048697 -0.491226 -0.614006 -0.439228 0.285245 -0.986837 0.0724507 -0.0504378 -0.984926 0.332989 -0.176194 -0.23255 -0.0651021 0.106727 -0.817578 0.759337 0.112223 -0.167724 -0.121392 0.0982935 0.134032 0.154553 -1.00669 -0.0621588 0.307415 0.735419 -0.46048 -0.155871 -0.125979 -0.00512182 0.326677 -0.185979 0.0536267 -0.136934 0.202439 -0.0536518 0.338483 0.316933 -0.0924293 0.430819 -0.924631 1.04546 -0.158754 0.866102 0.0439457 0.858028 -0.69071 0.136152 -0.629214 -0.0583112 0.420863 0.634394 -0.21027 0.415017 -0.0698401 0.537021 1.0931 -0.243225 0.497442 -0.0425964 -0.194546 -0.873922 -0.691292 -0.434019 0.444705 -0.443109 -0.0816012 0.671062 0.371975 -0.121089 -0.151826 -0.553236 -0.0238379 -0.454603 0.43471 0.0381409 -0.702174 -0.543613 -0.109313 -0.411388 0.741363 -0.530042 -1.44372 0.100379 0.113742 0.510935 0.644947 -0.0642988 -0.330125 -0.053263 0.114953 -0.227898 -0.226509 0.975305 0.298534 0.292079 0.0137752 -1.06198
his -0.0567658 0.991135 0.434772 0.186623 0.254925 -0.140908 -0.109397 -0.391921 -0.741405 0.90422 0.276021 -0.101709 -0.633505 -0.36873 0.737666 -0.314187 1.44163 -0.454402 -0.114436 0.435631 -0.347542 -0.34084 0.0997819 0.0821443 0.513648 -0.0131403 0.215327 0.201964 -0.0176655 -0.1052 0.26709 1.43272 0.16661 0.00648054 -0.260134 0.190759 0.0875377 0.274665 -0.258236 -0.115064 -0.424337 0.108301 -0.0801621 0.571718 -0.11551 -0.215051 0.1421 -0.124631 -0.061772 0.260724 -0.541281 -0.267693 -0.271969 0.358405 -0.149705 0.337061 -0.114961 0.160855 -0.302224 -0.0469712 -0.140497 -0.0348697 0.81857 0.742523 -0.313416 -0.36139 0.782944 1.335 -0.0223081 0.328739 0.0978467 0.144683 0.0297155 -0.0991782 -0.844367 0.0064787 0.471292 0.353093 0.17527 0.367836 -0.114799 0.302105 0.614521 -0.271352 -0.218167 -0.288862 -0.265659 -0.0249574 -0.109693 0.290797 0.0459509 0.504296 0.362255 -0.159953 1.00707 0.255442 1.15958 0.353279 0.058359 -0.251289 1.38816 -0.0813907 -0.0568366 0.781787 -0.52852 0.181733 0.117593 -0.461874 -0.326697 -0.459521 -0.119889 -0.00676369 0.224924 0.146225 0.00670169 -0.211852 -0.101363 -0.536939 -0.183688 -0.103186 -1.15829 0.887485 -0.0423827 0.0818996 0.0511973 0.261822 0.26571 -1.34802
do -1.40923 1.0758 0.116194 -0.265391 -0.174655 -0.232405 -0.10858 -0.0249719 0.0580689 0.26469 -0.104832 0.273331 -0.609025 0.288422 0.102503 -0.298348 0.0173131 0.765881 -0.0433911 -0.0535892 -0.0472291 0.130582 -0.772016 -0.283477 0.0207402 0.417449 -0.38011 0.835864 0.33739 -0.131239 0.241554 -0.191404 0.0971856 0.767198 0.133025 0.274876 0.21491 0.523135 0.163983 0.217051 0.108429 -0.162601 -2.22723 -0.554839 -0.165312 0.067306 0.0522381 -0.0833699 0.116727 0.397315 0.590926 0.0455574 -0.265786 -0.222567 -0.385049 -0.507465 1.0672 -0.0509299 0.503821 -0.411372 -0.043396 1.14423 -0.19747 -0.218941 0.0394898 -0.507663 0.100071 -0.0218206 -0.629229 -0.241127 -0.417148 0.391492 -0.415857 0.589929 0.303873 0.155069 0.0314652 0.0730589 -0.0507153 0.699107 0.372203 -0.268993 -0.304147 -0.556645 0.0440413 1.02743 0.801197 0.0318489 -0.704034 0.0270591 0.457021 0.215284 -0.826917 -0.203076 0.320001 -0.12058 0.358773 -0.227446 -0.137193 -0.177242 1.0037 0.19882 -0.110366 -0.251003 0.292875 -1.16034 0.386682 0.810064 0.403614 0.184954 0.659432 -0.517777 -0.548658 -0.519456 0.138362 0.277839 -0.451828 -0.0132341 0.260563 0.95141 -0.202126 -0.200894 0.352822 0.508431 0.45767 0.715105 -0.483244 0.124258
them 0.127991 0.175161 0.337659 -0.698719 0.367426 0.605512 0.382533 -0.0379592 -0.0582558 -0.502134 0.205053 -0.198831 0.02328 -0.683783 0.174809 -0.0421917 -0.537379 -0.428896 0.35351 0.11648 0.0296368 -0.542867 -0.0428415 0.101697 -0.00443855 -0.154285 -0.209978 -0.523695 0.869971 0.0331034 -0.0358548 0.0326952 0.29833 1.01012 0.18643 -0.211861 0.335909 0.00951162 0.226652 0.611873 -0.100642 -0.508081 -0.0165144 -0.950399 -0.111135 -0.140268 -0.0477361 0.291678 -0.18523 0.144931 -1.22163 -0.772868 -0.157304 -0.170777 -0.0289314 -0.259362 0.137033 0.77317 -0.5836 -0.0860364 -0.180056 -0.197298 0.765235 -0.156519 1.44743 1.61042 0.292164 0.166967 0.220071 -0.0036484 -0.146096 0.301331 0.803684 0.698567 -1.10573 0.110778 -0.0559259 0.0355012 0.225518 0.409827 -0.462972 -0.606848 0.145297 -0.0303151 0.206622 -0.0615524 0.0655855 -0.484031 0.276622 0.224397 0.200365 -0.0460485 -1.09776 -0.472018 0.12269 -0.457586 -0.279739 0.44358 -0.00820789 0.713144 0.0905296 0.00758862 -0.341432 -0.412355 -0.566601 -0.235478 -0.602513 -0.0816878 0.13166 -0.0496918 0.0854531 0.508435 0.234041 -1.53468 -0.0922895 0.236987 0.00941385 -0.471443 -0.470144 0.0811439 -0.0245305 -0.361981 -0.34676 -0.116905 -0.538253 -0.108597 -0.0453895 -0.0511453
no -0.609765 0.0188569 -0.267429 -0.169722 -0.823169 -0.386684 -0.0635402 0.186278 0.18993 0.266563 0.483899 -0.0218015 -0.0882939 0.00708074 -0.48788 0.424852 -0.501841 -0.437153 -0.218534 0.060189 -0.083833 0.444327 0.0300249 -0.0472198 -0.0330348 0.42377 -0.352241 0.169171 0.213546 0.00383136 -0.468045 -0.040196 0.140995 0.312279 -0.1496 -0.034045 0.147813 0.524503 0.339842 -0.13342 0.953758 -0.00200588 -0.32675 0.638576 -0.570044 -0.098913 0.31833 0.0856802 -0.220304 -1.9513 -1.02601 -0.0866748 -0.467603 0.84318 0.0486066 1.50787 0.404819 0.241265 -1.04647 -0.112459 -0.509517 0.596501 0.482091 -0.54319 0.390916 -0.026438 -0.363884 0.187026 -0.0387457 -0.311869 -0.795523 -0.598737 -0.255658 -0.805739 0.0470871 0.192667 0.106195 -0.352048 0.42937 0.735999 0.0885086 -0.45981 -0.102925 0.0447052 -0.0964669 0.362853 0.81342 0.223327 -0.967262 0.0111931 0.820457 -0.340992 0.780436 -0.169918 0.611251 -1.12811 0.0585616 -0.512228 -0.0938664 -0.486005 0.170905 -0.129399 -0.265254 -0.0880906 0.815513 0.0486209 -0.335237 0.468576 1.45235 0.0168775 0.626879 -0.438449 -0.778984 0.274226 -0.124514 -0.0180799 -0.246216 -0.071793 -0.189628 -0.311104 -0.0491508 -0.810807 -0.210484 0.444654 0.095724 1.09346 0.258222 -0.00784628
gutenberg -0.109895 -0.863595 0.0161538 0.316474 1.16927 0.468424 0.354958 -0.183511 0.0869746 -0.183616 -1.46564 -0.103777 0.156966 -0.179275 0.204734 -1.01954 -0.441327 0.121959 -0.598113 -0.0960721 0.17402 0.262398 -2.05785 -0.851458 -0.0438338 0.392251 -0.372009 0.301505 -0.442293 -0.199276 0.230948 -0.0301516 -0.203303 0.145367 0.108045 -0.0508186 0.0295877 -0.354096 0.64924 0.199042 -0.310726 -0.0445165 0.00202276 0.0882325 -0.579164 -0.207519 0.192844 -0.740767 0.103508 -0.0490636 -0.592242 -0.466174 -0.772257 0.393151 -0.278212 -0.0864472 -0.401933 0.241297 -0.0957213 0.305812 0.303981 0.264711 -0.188125 0.126231 0.105804 -0.15191 0.0908427 0.268383 -0.127122 -0.45145 -0.59942 -0.0939557 0.735749 0.254269 0.190579 -0.39929 0.690861 -0.151031 0.190444 -0.145666 -0.0768541 0.0937604 -0.180159 0.0882898 -0.0341161 0.219555 0.0393098 -0.429446 -0.790365 -0.329028 -0.131026 -0.00289363 -0.205099 0.492073 -0.687758 0.0540135 2.90337 -0.101747 -0.228316 -0.199894 -0.350791 0.146439 -0.718061 0.134353 -0.264796 -0.599033 -0.29459 -0.425896 0.552592 -0.00492355 0.927442 -0.406634 0.245068 0.372687 -0.403792 -0.0405236 0.234417 -0.173166 -0.812946 0.822398 0.136273 0.133732 -0.139682 0.507646 0.0413311 -0.286341 -0.51559 0.420432
like -0.998135 -0.506893 0.326738 -0.241799 -0.0135739 0.512328 -0.20754 0.0821632 -0.166961 -0.586228 0.375864 0.290632 -0.353242 -0.491312 -0.499034 0.187333 0.186224 -0.0881031 0.719621 -0.228141 -1.29957 0.316375 -0.887372 -0.379146 -0.377364 -0.88114 -0.105598 -0.00183087 -0.179815 0.399892 -0.57913 0.683847 0.256197 -0.203514 -0.00281428 0.249662 1.52984 -0.239187 -0.37902 0.512363 -0.132784 0.62561 -0.134882 0.483254 0.00692163 0.39465 -0.237706 0.154426 -0.0408739 -0.997242 -0.401513 0.216217 0.531154 -0.105709 -0.325146 -0.60004 -0.0893628 0.159329 0.351806 -0.169012 -0.978143 -0.456332 -0.604003 0.154536 0.290216 0.296937 0.0288665 -0.00358412 0.286029 0.611113 -0.219203 0.0383019 0.372835 0.00954936 -0.219863 1.2173 0.298162 -0.986861 0.290715 -0.0374233 -0.396093 -0.0691836 0.575814 -0.246673 0.00296223 -0.100087 -0.165684 -0.677428 0.0992357 -0.217176 -0.620663 0.700105 -0.397313 0.416032 -0.272131 -0.234505 -0.558475 0.103309 -0.104129 0.135673 -0.195075 0.586125 -0.624336 0.76074 0.538254 -0.430503 -0.269419 0.81803 -0.378079 -0.488813 0.147959 -0.202851 0.176467 0.400828 0.0627125 -0.519039 0.125468 -0.296696 -0.147591 0.504103 -0.46175 0.197637 -0.922257 0.641279 -0.235508 -0.318696 1.01064 -0.00927611
were 0.0530892 -0.0410682 0.323023 -0.0681958 0.151586 0.404662 -0.0820281 -0.189516 -0.478733 -0.220466 -0.224498 -0.1334 0.362141 -0.668432 -0.170671 0.185189 -0.00309953 -0.0248696 0.126041 0.247203 -0.180005 0.332944 0.872779 -0.27861 0.0628237 0.12097 0.70603 0.479036 0.510716 0.206155 0.56562 -0.90586 0.0965664 0.14471 0.211475 -0.86883 0.762294 0.261784 0.357592 0.0190499 0.134799 -0.469391 0.0409748 -0.255579 1.38025 1.01082 0.137721 -1.24985 -0.366414 -0.219963 -0.0127415 0.115798 0.466388 -0.570115 -0.024338 0.0673887 1.06443 -0.0723526 -0.812995 -0.0909366 -0.208904 -1.64266 -0.204042 -0.480025 1.12875 -0.388452 -0.00944459 0.754927 -0.78157 -0.203456 0.378576 -0.163092 -0.381202 0.721882 0.130544 -0.354859 -0.394087 0.92626 0.052954 -0.21466 -0.673025 0.067413 0.227995 1.18993 -0.443941 -0.175378 -0.115943 0.130503 -0.232724 0.0913181 0.0146175 0.0465492 0.0255124 -0.250032 -0.113703 -0.210354 -0.0269819 -0.331659 -0.108602 0.0012027 -0.032251 0.658404 0.845102 0.011705 0.343347 0.205594 0.700154 0.0352968 -0.309753 -0.375744 0.343735 -0.281784 -0.363011 0.132563 -0.437939 0.487166 -0.26311 -0.113364 -1.10857 0.423245 -0.453044 0.55087 0.138785 -0.0520095 -0.182985 0.676085 -0.265139 0.206878
know -1.28792 0.561279 -0.156587 0.237297 -0.704861 -0.132609 -0.345661 0.461968 -0.188208 -0.13598 0.364376 -0.312408 -0.269231 -0.00953338 -0.292608 0.358033 0.1771 -0.0945208 -0.796796 -0.315423 0.141828 -0.735519 -1.02319 0.158793 -0.318112 0.0157747 0.0693109 0.35214 0.617732 -0.240295 0.334373 -0.0272191 -0.634123 1.05256 -0.427641 0.295742 -0.0244059 -0.223013 -0.0925984 -0.256767 0.626273 0.165545 0.57823 -1.00832 -0.419108 0.493395 -0.241275 -0.200178 -0.680522 -0.0945443 0.886769 0.0280483 0.407404 -0.216827 -0.287457 -0.271619 0.149305 0.523328 -0.225564 0.108713 -0.662562 -1.11623 0.223339 0.347946 0.54259 0.0848561 -0.331012 -1.09721 -0.754148 0.505703 -0.420342 -0.0393064 -0.23152 0.132157 -0.284935 0.392052 1.69107 -0.388111 -0.550696 0.276181 -0.658917 -0.260599 0.770961 -0.686437 0.059057 0.18007 0.29644 -0.496177 -0.548991 0.387271 0.71793 -0.129357 -1.03712 0.57124 0.813055 0.0352007 -0.662483 0.0695027 -0.938844 -0.356652 0.13571 -0.237723 -0.383908 -0.219321 0.845804 -0.0836211 -0.204837 0.77256 -0.678354 -0.199872 0.221266 0.619744 -0.308388 0.752266 0.042894 0.0208562 -0.319422 0.165366 -0.0850044 0.419155 0.464217 0.892634 0.40444 -0.772117 -0.026393 0.142718 0.60019 0.457622
herself -1.04878 -0.54776 -0.838816 0.344793 -0.289075 0.0343622 -0.117457 -0.164833 0.206924 -0.00108453 -0.386394 0.278502 0.364377 -0.108038 0.505559 0.096671 -0.133919 -0.28264 0.139953 0.225925 0.295728 -0.169537 0.382658 0.216472 -0.648917 1.00563 0.300886 0.0994556 1.26855 -0.0804083 -1.14729 -0.0623276 0.499048 0.308727 1.14901 -0.814763 0.605051 -0.785177 0.592516 0.378953 -0.635249 0.358136 0.0659145 0.311888 -0.517817 0.321476 0.493763 0.10271 0.248351 0.288224 0.870594 -0.230741 1.85264 -0.107188 -0.0396025 -0.181 -0.576568 0.209943 0.00615452 -0.138712 -0.0671142 -0.736034 -0.115044 -1.25235e-05 -0.18578 -0.208115 -1.26237 -0.0494765 -0.752448 0.322402 -0.0984368 1.097 0.577748 -0.224183 -0.335808 -0.680788 0.177939 -0.315944 -0.010903 -0.077305 -0.165605 -0.462072 -0.0452051 0.0239688 0.19093 0.0190028 -0.877711 0.452691 -0.0638002 1.27847 0.0352431 0.27579 1.04948 0.385819 -0.00414997 0.230276 -0.741655 -0.0417826 -0.00244896 0.641688 0.885757 -0.86606 0.179889 -0.775056 -0.181476 0.010115 0.25819 0.345108 0.231467 -1.38283 0.0119626 -0.221968 -1.04444 0.158302 0.0675539 0.1548 -0.00218489 -0.110904 -0.0405593 0.143052 -0.146023 -0.111604 1.0134 -0.196307 0.237317 -0.791498 0.108624 0.634198
have -0.144138 -0.297716 0.208447 -0.467969 -1.68574 -0.0689186 -0.555088 0.0329804 0.242119 0.208412 0.0477288 -1.12473 -0.227133 -0.432785 -0.882922 0.647325 0.102815 -0.979556 -0.676247 -0.147279 0.293908 -0.00707379 0.625571 0.29174 0.105822 -0.407022 0.0705681 -0.0122055 0.196997 -0.153517 -0.476101 -0.432123 -0.492837 -0.218244 -0.103455 0.0486393 -0.0074685 0.374337 0.232319 -0.0142085 -0.0126519 -0.0134704 -0.876357 0.443395 -0.149938 -0.0449086 -0.525616 -0.14552 -0.476381 0.161193 -0.184652 -0.00121157 0.104791 -0.315034 -0.567729 -1.07203 0.170602 0.0369401 0.34275 -0.135849 0.388558 0.318187 -0.151345 -0.571123 -0.016865 0.075237 -0.568971 0.833305 0.0107155 -0.0455075 -0.411495 -0.0960049 0.228249 -0.0839396 -0.0907947 0.127447 0.59315 -0.0965876 -0.0399438 0.573391 -0.608757 -0.0640553 -0.263549 -0.451296 -1.02918 0.180319 1.78648 0.00845695 0.703909 -0.894691 0.00545373 -0.157759 -0.0680424 0.653763 0.659845 -0.87667 -0.147279 0.115084 1.14037 -0.15051 -0.280814 -0.468907 -0.331095 -0.228832 0.161864 -0.0372755 -0.679108 -0.481332 -0.203407 -1.2417 0.21816 0.630588 -0.0406102 0.262982 -0.0613158 0.0208112 0.0145128 0.277052 -0.715177 -1.14362 0.977448 -0.0483392 0.511276 0.504579 0.470471 -0.160559 0.233 0.137143
then 0.00972312 -0.219852 -0.308592 -1.13326 0.455803 -0.458845 -0.405934 -0.303922 0.819379 0.0325184 0.605343 0.0138708 -0.920882 0.124685 -0.196262 0.0216531 -0.999251 -0.551196 1.38595 0.148347 0.320453 0.877749 -0.386624 0.121442 0.540971 0.0209365 -0.734459 -0.573412 1.93491 1.02359 -0.310513 -0.199294 0.0517423 -0.361549 0.0760624 -0.379836 0.774734 0.283326 0.0277104 -0.354488 -0.167137 0.0901627 -0.0576002 0.182828 1.1288 0.294374 -0.596051 0.691491 -0.331013 0.128502 -0.320252 -0.121962 1.24321 0.230196 0.799981 1.16232 -0.687246 -0.293806 -0.260592 -0.310403 -0.52153 0.17357 -0.921315 0.0504128 -0.0315018 -0.234096 0.117878 1.19642 0.0329581 0.087915 0.268383 -0.661622 -0.0302536 0.143085 -0.164389 -0.566294 0.998483 0.0834381 0.104186 0.0318506 -0.29603 0.699246 0.655556 -0.409597 -0.0868384 -0.236126 -0.705127 0.553674 0.142612 -0.55629 -0.187995 -0.220381 0.000467814 -0.396018 -0.172528 -0.409282 0.0736116 0.978101 -0.235946 0.0653969 -0.157023 -0.127768 -0.114244 -0.584581 -0.448552 -0.1865 -0.0204266 0.346415 -0.090437 -0.594154 0.0363967 0.251577 0.435035 -0.655401 0.015068 -0.717532 0.162592 -0.311715 0.332229 0.0861632 -0.0785445 -0.0455814 0.368527 1.01383 -0.220728 0.231063 -1.00656 0.0891809
went -0.793639 0.0936639 0.480685 -0.952479 0.818025 0.486548 -0.0749127 -0.353747 0.145267 -0.10227 0.365272 -0.227945 -0.204003 -0.596333 -0.236383 -0.702268 0.17593 0.281956 -0.239681 0.133707 0.829596 -0.440502 -0.50625 0.0376994 -1.19573 -1.03526 0.111045 -0.19015 0.814696 0.324907 0.237656 -0.158931 0.585362 -0.308999 0.207829 0.056697 -0.28802 1.29472 -0.0691579 0.180067 -0.371945 -0.571053 0.0973478 0.10533 -0.292584 -0.331714 -0.00900972 0.0495887 -0.259707 -1.3687 0.399288 0.69793 0.745094 -1.05275 0.655633 0.217868 0.724312 -0.334162 0.0284856 -0.0837639 -0.397841 -0.388709 -0.00446366 -0.30542 0.119497 -0.111189 0.294278 0.113878 -0.042178 0.255232 -1.33327 0.371572 0.393672 -0.499054 -0.449504 0.0468231 0.176508 0.0554076 1.06601 -0.0157515 -0.135577 0.254656 0.702868 -0.417715 -0.00414884 1.3901 -0.576476 0.391273 -0.046498 0.644749 -0.422085 -0.995855 0.335511 -0.208161 0.245188 0.376228 -0.32 -0.418271 -0.375246 -0.388853 -0.00454361 -0.214235 -0.00390681 0.89713 0.259564 1.37632 1.40971 -0.0377046 -0.151299 0.207194 -0.167384 0.0135737 -0.0395365 -0.554578 0.222719 0.144206 1.25332 0.379004 -0.0292438 -0.746257 0.354222 0.476987 -0.820898 -0.406223 0.541183 -0.0931376 0.155915 0.685637
again -0.149102 -1.00713 0.412722 -0.712574 0.127498 -0.0203918 0.112927 0.199664 0.324097 1.15577 0.0798732 -1.02647 0.659113 0.051047 -0.182769 0.158263 0.116172 -0.773993 0.363889 0.123372 -0.16029 -0.135222 0.190026 0.0839185 -0.0450218 -0.0501795 0.2411 -0.278703 0.595862 -0.578481 -0.0293343 0.94159 0.0800453 -0.2319 0.536841 0.0666507 -0.103639 -0.0239738 -0.961123 -0.772055 -0.229876 0.730209 -0.52814 0.406803 -0.219763 0.359397 0.109807 0.613636 -0.0483759 -0.968734 0.274474 -0.348216 -0.221375 -0.650716 -0.222568 0.577548 -0.283029 -0.0287808 -0.0608411 0.546087 -0.0227839 -0.0928744 0.0611941 -0.308036 0.0957759 0.0429155 -0.425743 0.116799 0.116879 -0.27751 -0.530042 -0.0194494 -0.212405 -0.6004 -0.62757 0.130228 -0.177409 0.362696 0.421625 -0.946423 0.53439 0.0575519 0.178632 0.115577 -0.281428 -0.00194058 -0.99316 -0.438412 0.313789 0.0565934 0.719474 0.169769 0.416795 0.151734 0.133122 -0.21728 -0.319258 -0.28502 1.25908 -0.270091 -0.776786 -0.0989611 -0.932133 0.124444 -0.490943 -0.000557536 -0.360817 0.844206 0.502971 0.337377 -0.209549 0.512747 -0.446605 -0.242528 0.182154 0.392433 0.246179 -0.584439 -0.804386 0.448242 0.21668 1.11588 0.053067 -0.00273574 -1.48514 1.39044 -0.026476 -0.403007
project 0.107017 -0.734083 -0.150865 0.614302 0.920847 0.0754902 0.0587988 -0.511096 -0.0550425 -0.083561 -1.23827 -0.800686 0.063118 -0.23411 0.0833713 -0.757589 -0.00211597 -0.929614 -0.277563 0.119752 0.208171 -0.298299 -2.31241 -0.547312 -0.0101719 -0.226078 -0.39844 0.503491 -0.284596 -0.2493 0.182731 -0.314604 -0.116598 0.290859 0.555508 -0.299071 0.241541 -0.632993 0.863108 -0.106585 -0.144712 -0.152626 0.484674 -0.0290899 -0.260372 -0.149109 0.0758649 -0.552383 0.0441029 -0.111376 -0.602073 -0.0646944 -0.47854 0.649562 0.0322792 0.140309 -0.270327 0.924153 0.193517 0.33561 0.583706 0.268681 -0.104732 0.26001 -0.140318 -0.0234773 -0.27672 -0.190267 -0.357024 -0.00640023 -0.104641 -0.053612 0.337335 -0.0392262 0.0510433 -0.598786 0.290121 -0.160601 0.0413882 -0.75618 -0.308049 0.562408 -0.185992 0.377656 -0.0522028 0.20292 0.0700083 -0.454745 -1.00724 -0.716103 0.128607 0.4783 -0.146965 0.124012 -0.427076 0.653242 2.95379 0.0105213 -0.0202343 -0.230214 -0.192322 0.347741 -0.121397 0.238366 0.144378 -1.05583 -0.252706 -0.408226 0.843738 0.140278 1.01584 -0.787354 0.281879 0.581142 -0.0261744 -0.142925 0.144582 -0.0290385 -0.638835 0.970301 0.127968 -0.0808109 0.0925325 0.730993 0.559212 -0.141423 -0.716307 0.367956
would -0.413143 -0.421371 0.248965 -0.324539 -0.135761 -0.555928 0.67838 -0.306314 0.121931 0.202622 0.76323 -0.640415 1.07625 0.117377 -0.21919 0.299629 0.111794 -0.251193 0.187822 0.178255 0.176064 -0.0265634 0.885007 -0.133657 -0.297091 -0.850698 -0.980745 -0.337599 -0.51816 0.372302 -0.947694 -0.29111 -0.0299565 0.422841 0.69934 -0.689707 0.354874 -0.943728 -0.717965 -0.0643431 0.0666261 -0.471747 0.273245 0.538191 -0.0348117 -0.0432074 0.234948 -0.204696 0.491239 -0.515361 0.775744 -0.15776 0.0576257 -0.297196 0.161254 0.311827 0.207035 -0.13718 -0.278683 -0.41953 -0.0522292 0.372088 0.467767 0.868651 -0.0828869 0.98928 -0.0541653 -0.410818 -0.244726 -0.157562 -0.97262 0.164388 0.22558 0.0674458 0.14484 0.447867 -0.564301 -0.375017 0.0778296 -0.0343809 -0.0223833 0.474725 0.938483 -0.0956463 0.186098 -0.0171927 0.529427 -0.712197 -0.253456 0.0688667 0.129447 -0.177017 -0.0470083 -0.0858374 1.18218 0.320299 -0.423773 -0.063653 -0.00244877 -0.048555 -0.183947 -0.22924 0.826151 -0.253133 0.441742 -0.55601 0.340851 -0.26697 -0.869474 -0.331699 0.227526 0.10122 -0.185497 -0.334578 0.584567 -0.891533 0.0587213 0.19932 -0.346976 0.10497 0.55744 0.982632 -0.904994 0.597136 -0.329791 -0.815573 -0.242511 0.175824
by -0.0346665 -0.471843 0.0859987 0.584063 -0.0532382 -0.167751 0.0109602 -0.524167 0.0580186 0.60641 -0.821685 -0.167207 0.0428517 0.2989 -0.743036 -0.0928077 -0.0797667 0.498133 0.547997 0.0526071 -0.788848 0.225157 0.00359762 -0.905025 0.179608 -0.750579 -0.391214 0.303352 0.01959 -0.353083 0.13765 0.370301 -0.0398859 0.360869 0.513929 0.647339 -0.0831188 -0.089183 -0.204057 -0.078538 0.157133 -0.503015 -0.620553 -0.12117 -0.476415 0.471612 -0.048697 0.0213715 -0.0669643 0.0729179 0.12955 -0.4064 0.0576992 0.00520798 -0.753965 0.634827 0.2509 -0.534393 0.144822 0.83402 -0.30082 -0.333035 -0.189846 -0.245673 0.737482 0.172373 -0.293855 0.460413 0.853547 -0.193478 0.327604 0.110485 -1.37875 -0.0976414 0.701206 -0.0539207 -1.1915 -0.163265 1.15418 -0.0466819 -0.279299 -0.460979 0.164967 -0.0209346 0.255621 -0.285063 0.586395 -0.109714 0.67751 0.836603 -0.344489 0.746796 0.498388 0.281531 0.429306 -0.0340105 1.55991 0.456228 -0.371129 0.235106 -0.114928 -0.177034 -0.0307148 0.353806 -0.196224 -0.406312 -0.207653 -0.254747 0.152282 -0.0296555 -0.459889 -0.231804 0.670445 0.169476 0.00164018 0.429655 1.16689 0.913878 -0.318124 0.299017 -1.30518 0.249145 0.103212 0.15826 0.422577 -0.0207811 -0.737333 -0.650441
could -0.156577 0.200939 0.448614 -0.100245 -0.322613 -0.524471 -1.18425 -0.0744222 0.0142748 0.0509143 0.55655 -0.804618 0.787227 0.388822 1.45605 -0.571239 -0.293632 0.777347 -0.0730373 0.311873 0.106164 0.0450556 0.303921 0.0692719 -0.137821 -0.420419 -0.651175 -0.257944 -0.110795 0.865967 -1.62254 -0.269102 -0.735312 0.349951 -0.351008 -0.298357 0.865408 -0.306813 1.35324 -1.49 0.283239 0.506267 0.0289968 0.469303 -0.326604 1.00536 -0.252713 -0.476364 0.392255 -0.397009 -0.222559 -0.200439 0.969145 -0.691486 0.1579 0.392671 -0.1446 -0.407779 0.036528 -0.614102 -0.972607 0.368299 0.427909 -0.18296 0.502879 -0.111906 -0.0566574 0.12789 0.781265 -0.298739 0.075072 0.203299 0.167849 0.548995 -0.134354 -0.069912 -0.453899 -0.00426329 -1.6051 -0.0151555 -0.0947855 -0.196395 -0.330894 -0.189887 -0.244496 -0.108659 -0.600047 -1.29796 -0.579758 0.203745 0.810555 0.0414542 -0.701782 -0.24873 -0.0410506 0.0508426 -0.786392 -0.610611 -0.929511 0.00947833 0.344109 0.0615986 -0.959476 -0.0960148 -0.712611 0.136252 -0.627065 -0.0630069 -0.220753 -0.103858 0.615387 0.087334 -0.0550291 0.455022 -0.197644 -0.0382453 0.574449 0.156783 -0.886078 0.444097 -0.611197 0.136349 0.190913 0.760183 0.409869 -0.894071 -0.219797 -0.718467
when 0.0539746 -0.0167441 0.451444 0.0265333 -0.238795 -0.182071 0.0634 -0.277068 0.221754 -0.509346 -0.193484 -0.459912 0.936856 0.0451194 -0.711535 0.192965 0.199293 -1.04635 0.00640669 -0.758148 -0.439335 -0.709067 -0.00542747 -0.096008 -0.734817 0.117441 -0.135018 0.218265 0.0171182 0.483071 -1.66077 0.128531 0.208145 1.51766 0.24546 0.547662 0.827295 -0.0131394 -0.321099 1.41996 0.873505 -0.0375553 -0.488601 -0.711658 -0.192875 0.37002 -0.128986 -1.40788 -0.586715 0.696859 0.555969 0.0459174 0.00915969 0.166191 -0.758183 0.195753 -0.0304004 0.341457 0.268876 0.472192 -0.0401977 0.311715 -0.935383 0.0629756 0.0206742 0.474005 -0.466861 0.133548 -0.561762 0.111338 -0.120721 0.427079 -0.304385 0.0220003 -0.273188 -0.237036 -0.213252 0.490075 0.863469 0.0918719 0.5271 -1.37283 -0.317408 -0.29923 -0.145627 -0.059974 -0.28807 0.33595 0.618136 -0.0966975 0.555599 -0.776741 0.186129 0.753617 0.136101 0.240837 -0.0443182 0.0225259 0.285117 -0.429241 0.586763 -0.715953 0.466657 -0.0812175 -0.0630586 0.154511 -0.571515 0.0462687 0.433992 -0.564213 -0.682717 -0.116266 0.223252 0.0598895 -0.484763 0.326269 -0.0673256 -0.771816 0.218264 -0.0781364 -0.118292 -0.0383807 -0.253412 -0.160223 -0.867253 1.17684 -0.887043 -0.414221
any -0.747771 0.281661 -0.162338 0.511197 0.118399 0.561047 -0.120305 0.105415 0.00130929 -0.468057 0.0725907 0.747815 0.278049 -0.56083 -1.00844 0.0524926 -0.821517 0.194133 -0.770173 1.2783 -0.35144 0.298885 -0.545901 -0.389944 0.0967049 -1.14809 -0.146264 -0.661395 -0.149682 -0.0418128 -0.0118995 -0.157902 0.265009 -1.05717 0.0700015 0.0356783 -0.137141 0.186121 -0.550773 -0.13532 0.239576 -0.0143394 0.155 -0.408935 0.086773 -0.0324151 -0.010716 0.0306264 -0.102061 0.723613 -0.148369 0.260244 -0.384598 -0.500274 -0.140116 0.0371152 -0.284882 -0.379255 -0.0762521 0.223537 -0.135315 0.422397 -0.0472148 -0.491794 -0.249238 1.21651 -0.237629 0.222244 -0.031962 -0.0705466 -0.391258 -0.476911 0.895267 -0.11025 -0.18614 -1.08131 -0.590474 -0.879429 0.163458 -0.406867 0.257 0.137394 -0.456206 0.401937 0.699273 0.521605 1.29627 0.198402 -0.668754 -0.696668 0.0274131 -0.102647 -0.310512 0.547841 -0.000587947 0.524729 1.04019 -0.358593 -0.0281518 -0.0949913 0.418958 0.0591728 -0.300341 -1.20807 1.07484 -0.580977 -0.113546 -0.664728 1.01736 0.204458 0.803356 0.139579 -0.273509 0.257405 -0.550831 0.739188 0.174307 -0.534057 -0.0145695 0.506759 0.230897 0.535304 -0.344306 -0.677395 0.15468 -0.0305511 -1.10044 0.395595
thought 0.656845 -0.212507 -0.00674077 -1.14318 -0.544096 -0.100605 -0.351241 -0.189642 0.474315 0.642346 0.213504 -0.820309 -0.559328 0.551656 -0.198048 0.473982 -0.602617 -0.573091 0.492306 -0.14793 -0.618769 0.213788 0.31638 -0.609135 0.743365 0.366788 -0.106725 0.00915729 -0.660933 0.387849 -0.73599 -0.119932 1.17133 -0.239974 -0.305251 -0.274911 1.28914 0.713727 0.467858 -0.723595 0.100797 -1.20467 0.0209273 0.402671 -0.910077 0.0938215 1.1674 0.803893 -0.0431353 0.0685839 -0.132126 0.257488 -0.220047 -0.0603663 -0.26639 -0.313785 0.43526 -0.149164 -0.2997 -0.413721 -0.0878424 -0.559044 -0.287569 0.648379 0.116913 0.292182 0.346839 0.0874072 0.233716 0.0876109 0.447015 -0.119038 -0.501999 0.211652 -0.539434 0.696522 -0.0430582 -0.566164 -0.0526216 0.113368 -0.813786 0.172953 0.740442 -0.807799 -0.0781881 -0.323728 -0.235269 0.138642 0.160974 0.0836404 -0.282764 1.47385 -0.0808543 1.20367 -0.0689302 -0.391933 -0.0524641 -1.24371 -0.215303 0.835458 0.53862 -0.252145 0.000193082 -0.455313 0.590471 0.119171 0.143398 0.0652099 0.0478612 -0.169248 0.572556 -0.229787 -0.101886 0.141573 -0.176255 -0.0148518 0.568695 0.253078 -0.507618 0.604148 0.322973 0.872303 0.300718 0.172051 -1.07345 1.453 0.0116136 0.253342
there 0.00206709 1.19478 0.547888 -0.642696 -0.70308 0.778808 -0.0941067 0.355458 -0.389842 -0.284113 -0.129789 0.603379 0.120063 -0.178667 -0.151418 -0.28891 0.293884 -1.17299 0.0495511 -0.0187501 0.748795 0.173408 0.671802 -0.63313 0.226442 -0.977095 0.318879 0.649707 -0.0602739 0.156365 -0.405678 -0.27922 0.358309 -0.564092 -0.499836 -0.511612 -0.100544 1.05025 0.459549 0.821842 0.651251 -0.855891 0.588507 -0.0573784 -0.0633487 -0.253649 0.560244 -0.528598 0.212352 -1.36194 -0.0274843 0.227123 0.678891 0.0363844 -0.155194 -0.0601894 -0.326078 -1.04452 -0.0727946 0.66266 -0.134262 -0.165388 -0.133869 -0.260366 0.355248 0.200179 -0.208599 0.364844 0.652037 -0.881954 -0.580968 0.310384 -0.451518 -1.21501 -0.335684 0.0575199 -1.22382 0.471692 -0.130173 0.112358 -0.727555 0.0973357 0.185226 -0.667482 0.457682 -0.341216 -0.228662 -0.294969 0.0713225 -0.450738 0.704472 -1.31744 0.00492836 -0.403313 0.00363692 -0.73037 0.709026 0.0546071 -0.0930752 0.950233 -0.387247 -0.25021 0.380004 0.2827 0.793314 -1.23651 0.0105403 0.133469 -0.133284 0.554615 0.590179 0.0459015 0.451365 0.373332 0.192847 0.161465 -0.0831902 -0.325357 -1.04418 0.0802226 -1.06629 -0.150248 0.130951 0.28169 0.118695 0.365076 -0.499317 0.19148
time -0.341336 -0.0771963 -0.130375 0.0894459 0.508708 -0.752119 -0.0193111 0.0945949 0.462812 -0.392397 0.452143 0.0910729 0.700336 -0.265219 0.110072 -1.28645 0.444089 -0.816091 -0.579441 0.181681 0.163188 0.472328 0.260823 0.00773954 0.587803 0.206941 -0.237532 -1.05371 0.248705 1.33191 -0.0812799 -0.0631874 -0.0190787 0.533799 -1.28336 0.185584 -0.450224 -0.108248 0.0897833 -0.482789 0.0408939 0.425659 -0.491268 -0.115633 -0.127811 0.716393 -0.0852493 -0.115964 0.0428959 -0.273386 -0.340874 0.241753 0.121482 -0.0647173 0.743399 -0.347913 0.528499 0.0120796 -0.129096 0.269141 0.573234 -0.0621789 0.0927969 -0.0736637 -0.236235 0.388674 -1.36918 0.00915331 -0.841362 -0.370309 0.701516 0.193826 0.561862 -0.339875 0.142205 -0.627131 -0.503077 0.774517 -0.167923 -0.506612 0.51485 -0.992916 1.25392 -0.562295 0.0866669 0.256594 -0.535475 -0.0694302 -0.0854882 0.473219 1.17562 0.229774 0.639062 -0.290496 -0.069992 -0.13884 -0.205711 0.286619 -0.123122 -0.074059 -0.162229 0.205543 0.295941 0.453468 0.950723 -0.44256 -0.025116 -0.137997 -0.402535 -1.53742 -0.148939 -0.78042 0.138806 -0.838741 -0.0413725 0.439794 0.613932 -0.0720606 -1.12914 0.37594 -1.01508 -0.125188 -0.741853 0.378924 -0.157501 0.335283 0.21554 0.274689
see -0.0330259 1.12846 -0.415527 0.586064 0.0836775 -0.659261 0.556418 -0.455795 0.0701295 -0.374325 0.531284 -0.465611 -0.202796 0.891869 0.172593 0.448871 -0.368698 -0.139736 0.0850133 0.14498 -0.627548 -0.876437 -0.298938 0.0249824 -0.0551814 -0.0816309 0.142258 -0.0896296 0.32436 0.266973 0.209333 -0.401422 -0.236761 -0.828806 -0.616309 0.631349 0.870984 -0.278815 -0.22858 0.425519 0.117038 -0.218027 -0.485522 -1.25559 0.437468 0.478122 -0.00536431 0.882693 0.144185 -0.0985429 0.736776 -0.952085 -0.351426 -1.39118 0.244174 0.0099846 -0.679408 0.211924 0.865852 0.135462 1.06036 0.436563 0.367465 -0.497024 0.114987 0.629775 -0.254063 0.31562 0.175639 -0.0792637 -0.0486019 -0.0723305 -0.233485 0.228158 0.774924 -0.152624 -0.341035 -0.451388 -0.0126131 -0.233242 -0.818133 0.333191 0.232701 -0.928956 -0.294556 0.00718892 -0.632105 -0.379545 -0.00568308 0.0140691 -0.580661 -0.514592 -0.564395 -0.827583 0.520387 -0.268295 0.311107 0.237919 -0.652998 0.224888 0.121672 -0.0782639 -0.164388 0.118837 -0.278371 0.0645052 0.923276 -0.263497 0.0913239 0.918212 1.36876 0.0765163 -0.30308 -0.0525415 -0.460705 0.944129 -0.819833 -0.0116933 0.105267 0.153731 -0.161128 0.232659 0.0408648 0.29348 -0.532966 0.11628 -0.0660619 -1.12045
your 0.700571 1.26334 0.153914 -1.06065 0.285437 -0.344431 0.771829 -0.417674 -0.328426 0.32395 0.440166 0.222554 0.310787 0.590731 -0.393323 0.034774 0.17197 -0.110866 0.505546 -0.767931 -0.409474 -0.153215 -1.45294 0.12315 -0.574899 0.230781 0.323214 0.000731557 0.0315432 0.377656 -0.496522 0.619321 -0.443278 0.750937 -1.10744 -0.79425 0.190043 -0.438761 -0.0563659 0.354726 0.120421 -0.619149 0.499329 0.773459 -0.304849 -0.296627 -0.141115 0.0667812 0.168674 0.589869 -1.31903 -0.135734 -0.220497 -0.127443 0.523737 0.194908 0.0837663 0.226673 -0.413304 0.242144 -0.105584 -0.890233 -0.318386 -0.111931 0.220385 -0.641302 -0.671852 -0.383665 -0.33869 -0.522846 -0.500703 -0.316124 -0.148372 -0.681442 0.069773 -0.784369 0.673688 -0.187048 -0.25664 -0.0256846 -0.712013 0.520937 -0.302691 -0.0357636 -0.0587557 0.290889 0.56073 0.58068 -0.333336 0.067801 -0.244263 0.587993 -0.27232 1.11319 -0.181785 0.0531251 0.293413 0.27138 -0.0525394 0.145846 -0.366248 0.400734 -0.114801 0.693941 0.655046 0.0487938 -0.0172546 -0.115698 0.325628 0.178953 0.181286 -0.0867248 -0.873806 0.383006 0.615551 -0.137413 -0.950982 0.860596 0.458582 -0.269572 -0.703774 0.131385 0.187122 -0.140055 0.0150968 -0.164123 0.0769967 0.0909111
into 0.297942 0.0177936 -0.139314 -0.600488 0.308744 -0.301997 -1.21734 -0.0238029 -0.332703 0.636629 -0.59278 -0.832851 -0.682988 -0.318522 -0.407144 -0.135059 0.582778 -0.0846848 0.507242 -0.23532 -0.188324 -0.502703 0.747579 -0.0215328 -0.694619 -0.068123 0.447637 -0.713184 0.432535 0.0873987 -0.480628 0.313026 0.251851 0.0765988 0.300175 0.134197 -0.260714 0.352462 0.638051 -0.410631 -0.0978053 -0.122103 -0.901807 -0.282301 -0.108084 0.0234541 -0.69801 -0.384631 -0.0686424 -0.310271 0.644733 -1.46918 0.906671 -0.171528 0.36439 0.257992 -0.0558644 0.0133726 -0.847659 0.263255 -0.310396 0.351521 0.281115 -0.13343 0.687854 0.0629737 -0.45889 0.0237374 -0.0937594 0.182693 0.0167815 -0.547779 0.209292 0.683667 1.41952 -0.99714 -0.913522 -0.605589 -0.246756 -0.296053 0.0506198 -1.02562 0.32832 0.382574 0.322748 0.801303 -0.708341 -0.298527 -0.0371999 -0.766894 -0.276483 -0.0343251 -0.110176 -0.064441 -0.565002 -0.45422 -0.42107 0.103041 0.444585 0.321024 0.40602 -1.10689 0.960833 -0.0519158 0.404075 0.185029 -0.176679 -0.302987 -0.175429 -0.175733 0.43246 0.295193 0.958919 0.769582 0.426001 -0.528137 0.0030986 -0.0262619 -0.952167 -0.395757 -0.15662 1.22438 0.917495 1.18243 0.0103941 0.142261 0.562474 -0.372908
me -0.601125 -0.248519 0.191062 -0.348496 -0.810007 0.319094 0.282952 -0.0835172 -0.555953 0.621761 0.702908 -0.721097 -0.10315 -0.861864 0.184132 -0.189783 0.256475 0.667485 0.418571 1.39306 -0.545289 0.103732 -0.316025 1.25177 0.267785 0.514969 -0.716756 0.577214 -0.109948 0.423243 -0.475161 0.00424356 -0.407441 -0.22949 0.455663 -0.0609712 -0.0127684 0.723034 -0.501745 -0.122752 0.0642336 -0.850213 0.405426 -0.450259 -0.956235 0.297668 -0.0411623 -0.0219832 -0.733071 0.151559 0.362637 -0.34619 0.0140539 -0.137934 -0.105874 -0.341594 0.193023 0.290159 0.964714 0.635735 -0.0403192 0.31617 -0.16316 0.00996861 0.817407 -0.236955 0.571388 -0.153945 -0.0539947 0.0109862 0.084014 0.289293 0.46683 0.0158308 -0.735421 0.117592 -1.03417 0.390747 0.927546 0.0624273 -0.647443 -0.595066 0.786432 0.219386 0.184948 -0.800922 -0.616461 0.272873 -0.488554 -0.281866 0.29107 -0.475737 -0.948747 0.625722 0.010731 -0.0858399 -0.445011 0.221043 0.20926 -0.370969 -0.0774797 0.671173 0.0877131 -0.935589 1.25066 -0.362741 -0.214467 0.601263 -0.346849 -0.291852 0.81363 0.504779 0.331725 -0.0331383 -0.817023 -0.0794025 -0.113498 0.280187 0.257112 -0.244823 0.0997829 -0.189719 -0.532472 1.82682 -0.428684 -0.25006 0.136383 -0.00945753
are -0.259983 0.216701 -1.5 -0.044678 -0.156524 0.255353 -0.52746 -0.0170438 0.833528 -0.0237648 -0.229499 0.34145 -0.032091 1.88346 1.00351 -0.352851 -0.0855341 -0.411021 -0.147888 -0.401882 -0.0736397 0.0422307 -0.398134 0.261259 -0.278197 -0.294979 -0.647966 0.716776 0.0837316 -0.11799 -0.0335537 0.0967483 -0.222196 0.0368906 -0.844605 -0.176926 0.322399 -0.499663 0.289839 -0.231927 -0.88723 0.343126 1.01338 -0.564935 0.163915 0.153347 0.528249 0.00249184 -0.676609 -0.662683 -0.632029 -0.209682 -0.271014 -1.36621 -0.609452 -0.108513 0.221204 0.253848 -0.380857 0.33554 0.227332 -0.10054 1.50777 -0.841603 0.336228 -0.359931 -0.155266 -0.398139 0.0395896 -0.313948 -0.111547 -0.212032 -0.131015 0.223704 -0.0896577 1.0891 0.128286 0.235658 0.123949 -0.218736 -0.85626 0.91975 -0.340187 0.886724 -0.118976 0.378815 0.32292 0.231763 -0.32707 -0.379183 -0.745676 0.507777 0.0634019 0.288729 0.249289 0.232523 0.73415 0.129944 0.0725132 -0.907792 0.222432 0.387274 -0.0479047 0.0655571 0.265429 0.0525379 0.144563 0.232574 -0.0580124 -0.979914 0.779606 -0.278453 1.22512 0.245219 0.579229 0.138075 -0.0994966 0.105215 0.387004 -0.52994 -0.334875 0.0174204 -0.0868091 0.186389 0.396741 0.304341 -1.26603 -0.145867
queen -0.369937 -0.14234 -0.0112316 0.270197 -0.621333 -0.622529 0.153199 -0.757599 0.827123 0.0403081 -0.251742 0.279318 1.43424 -0.554136 -0.369939 -0.986647 -0.310039 -0.396865 0.391308 0.520866 0.202347 0.231544 0.773551 -0.090747 -1.24976 -0.151837 -0.375367 -0.111228 0.21148 1.25564 -0.141633 -0.0231543 -0.124781 0.105404 0.0936116 0.0307839 -0.481459 -0.0742092 -0.936462 0.0822408 0.696603 -0.181141 -0.162362 -0.33713 0.290919 0.102667 -0.189252 -0.231331 0.503748 -1.02079 -0.846754 -0.434372 0.252687 -0.529647 0.066687 0.0558407 0.166969 0.187207 -0.492043 0.0529756 -0.346195 -0.209109 0.101653 0.390624 -0.470522 -0.420002 1.09956 -0.180011 1.45409 0.152166 0.394453 0.672171 0.0420536 -1.25086 0.0679233 0.251574 0.153724 0.0157259 0.734598 0.248203 0.579826 -0.429288 0.278432 0.381846 -0.168626 -0.166972 -0.816157 0.706371 0.0279143 -0.00459866 -0.262747 0.016145 -0.0195603 0.868516 -0.357015 -0.271731 0.419689 0.577612 -0.0134856 0.304008 0.432625 0.575337 0.785639 0.503978 -0.436912 0.098356 0.0594335 0.338926 0.159622 -1.26675 0.0323097 -0.0794685 0.304408 1.12622 -0.1303 1.11017 0.268316 -0.330724 0.535918 0.11706 -0.054388 0.175798 0.512547 0.759102 -0.0461401 -0.255705 0.429991 -0.774089
off 0.108059 -0.228736 -0.442949 0.669581 0.458422 0.468006 -0.678392 0.630721 -0.138588 -0.484276 -0.540843 0.718844 0.34114 0.084801 -0.297422 -0.110203 -0.164968 -0.344798 0.631835 -0.0546741 -0.405549 0.44168 0.0351564 0.645622 -0.220939 0.540576 0.279442 -0.00759567 0.14746 0.399604 0.876882 0.254116 0.653636 -0.559336 0.720571 0.599312 0.110976 -0.107526 -0.19481 -0.897602 0.0317661 -0.467377 -0.0942205 0.646598 -0.415486 -0.0653654 0.478345 -0.684296 -0.133353 0.0462377 -0.627782 -0.503717 -0.0745335 0.946015 -0.950557 0.157357 -0.38396 -0.371194 0.343396 0.0638265 -0.00933208 -0.09505 0.49669 -0.0468451 -0.129784 0.227711 0.598076 1.33033 -0.198966 -0.693251 -0.995725 -0.471425 0.127838 -0.546282 0.411626 -0.0545388 -0.454759 -0.390395 0.335908 -0.265852 0.244333 -0.0266896 0.277061 -0.441596 -1.42679 0.569217 -0.801977 -0.0873308 -0.030896 0.0501254 -0.0272555 0.146171 -0.429142 -0.0701264 -0.630623 1.24106 -0.361993 -0.0422875 -0.0465622 1.10205 -0.170692 0.0784407 -0.40202 0.349124 0.7891 -0.0443298 -1.80011 0.311121 -0.358891 -0.312146 -0.699513 -0.67412 -0.138725 -0.588537 0.119467 0.222475 0.427578 0.598577 0.170087 -1.00235 -0.803192 0.345095 0.0619567 0.214409 -0.366359 -0.755621 -0.0705555 -1.7505
its 0.639627 0.640302 0.358754 -0.0715963 0.357707 0.969389 0.314715 -0.729693 0.222666 -0.00802812 -1.04678 0.271223 -0.1764 0.193945 0.612351 -0.641297 0.571477 -0.426302 -0.458949 -0.571215 -0.291927 -0.0207529 0.489704 0.728463 -0.118505 -0.365204 -0.0700435 -0.242456 0.974142 -1.04287 -0.534583 -0.273927 0.0618963 0.35286 -0.0607741 -0.492108 -0.634932 -0.0842085 0.0352437 0.0145987 0.619848 0.402182 0.284218 0.310741 1.67786 0.469487 -0.0696921 -1.02072 0.155564 0.0357665 -0.0737485 0.442106 -0.372906 -0.183626 0.912679 -0.107865 -0.142075 0.0235555 -0.455235 0.21531 -0.534022 0.58647 -0.58479 0.320673 -0.319245 -0.0815283 -0.325377 0.261955 -0.0769486 0.324258 0.204225 0.0121863 1.18179 0.102823 0.0311969 -0.747246 -0.260349 -0.0181217 0.612102 -0.467598 -0.185862 0.136212 0.0272147 -0.510188 0.0160343 0.351813 -0.551522 0.898693 -0.0976883 0.662007 -0.0505472 -0.119341 0.215308 -0.182955 0.13831 0.0459946 0.197285 -0.111663 -0.0127592 0.478186 -0.495492 -0.443368 -0.674874 -0.478227 -0.0592628 0.0182673 0.209426 0.627969 0.498843 0.266188 -0.217433 0.307077 1.16524 -0.188881 0.116641 -0.115762 -0.100015 -0.436339 -0.209471 0.00811252 0.0674665 1.21947 -0.40347 0.456093 -0.244824 0.983338 -0.0493879 -0.670634
did -0.548144 -0.109509 -0.0453623 -0.342103 -0.0157271 0.581468 -0.329849 0.110475 -0.653849 -0.162711 0.527362 0.355082 0.538267 -0.244301 0.515932 -0.00370162 0.62146 0.0880757 -0.446244 -0.0194653 0.406907 0.814809 -0.294552 -0.108204 -0.658985 -0.730164 -0.0727738 0.0583881 -0.789069 -0.0996475 -0.287853 0.858824 -0.656217 0.210049 1.00775 -0.0251732 1.22669 0.00337475 -0.0567626 0.0988928 -0.0826235 -0.282805 -0.061064 0.143689 0.0878039 0.251764 0.108622 0.131172 0.247055 -0.998059 0.0665188 -0.0705509 0.435932 0.198126 1.2883 0.25322 1.60585 0.153298 0.576141 -0.953038 0.142193 0.881416 0.0362509 -0.919251 0.0268191 -0.0637244 -0.123522 0.637866 0.843143 1.34184 0.453234 -0.921198 0.131127 0.415628 0.392095 1.23942 -0.0694062 0.467821 -1.17731 0.482601 0.187284 0.133838 0.0741765 0.0570314 0.691243 0.00881752 -0.00664087 -1.52327 0.307649 0.36013 -0.199317 -0.237259 -0.39924 0.545936 -0.323964 0.46785 -0.55847 0.129334 -0.32944 0.321774 -0.0928741 0.0373945 -0.141238 -0.00778202 0.0627832 -0.458786 0.551107 -0.658 -0.158893 0.426438 -0.221657 1.46917 -0.284807 -0.6846 0.442482 0.663772 0.829397 0.385442 0.735671 -0.248653 0.0698358 0.160204 -0.218505 0.573292 -1.51948 -0.307223 -0.0557707 -1.08247
an -0.0839138 -0.35285 -0.904614 -0.566819 0.718663 0.362426 -0.12858 -0.0497403 0.768242 0.516178 0.0699887 0.183389 0.218602 -0.382839 0.00671354 -0.535425 -0.122936 -1.04679 -1.03109 -0.0784005 -1.36325 1.11032 -0.0756601 0.141773 -0.394952 0.0906304 0.234676 0.58523 1.1697 0.400819 0.259491 1.26385 -0.084008 -0.252202 0.306327 0.696439 -0.166589 -0.770391 -0.336127 0.527148 -1.19484 -0.0731224 0.363554 -1.09761 0.076249 -0.297408 -0.155472 -0.373937 -0.226567 -0.708136 -0.407149 -0.0700529 0.275825 -0.117282 0.842167 0.988016 -0.143098 0.422794 -0.36017 1.18484 -0.864095 0.509396 0.0841074 -0.57294 0.145464 0.216253 0.235474 0.22621 -0.169642 0.0724616 -0.133292 0.210398 -0.0391864 -0.38802 0.963629 0.386455 0.781323 0.123585 -0.0875496 0.00228977 0.122665 -0.168399 0.0527628 -0.063799 -0.0880155 -0.181855 1.25764 -0.484487 0.120773 -0.205183 0.236548 0.265207 -0.459499 -0.115905 0.39931 0.266404 -0.16239 -1.17819 -0.685719 0.948275 0.154746 0.203407 0.263894 -0.168432 0.242904 0.140089 0.2769 -0.170211 0.33981 0.348725 -0.162192 -0.266217 0.855431 -0.230711 0.134427 0.268941 0.100097 -0.314399 -0.0574066 -0.0558921 -0.771289 -0.18566 -0.0139029 0.236299 0.773108 -0.36038 -0.108412 0.830883
king -0.256557 -0.545127 0.472005 -0.704437 -0.164618 0.0204942 -0.734146 -1.1464 0.445515 0.354393 0.159904 0.285419 -0.0348541 0.124331 -0.251021 0.560633 0.252282 -0.520155 -0.0388513 -0.436214 -1.25796 1.13246 -0.371277 0.0541975 0.0924229 1.69081 0.479607 0.24199 -0.159662 1.51058 -0.244742 0.268329 -0.65209 -1.00427 0.27977 0.666627 -0.326286 1.03483 -0.0358669 -0.0167466 0.625361 -0.716958 -0.324556 -0.0631971 0.131097 -0.441902 0.117609 0.389525 0.329414 -0.138957 -0.605547 -1.0689 0.462006 0.397759 -0.322082 0.170024 -0.756384 -0.243852 -0.530966 -0.188878 0.107683 -0.338053 0.769244 0.274845 -0.155253 0.457002 0.49346 -0.3297 -0.531769 -0.141128 0.131464 -0.159838 -0.453451 -0.0155706 0.0086748 -0.553431 0.736921 0.293075 0.320172 0.855137 0.141993 0.206946 1.66202 -0.361727 -0.0377716 -0.0389699 -0.50444 0.120398 0.19532 0.0910184 -0.242905 -0.139142 -0.140396 0.522616 -0.876769 0.0598006 1.50955 0.0350315 0.584676 -0.552846 -0.296924 -0.238125 0.514241 0.471166 0.233485 -0.438346 -0.784872 0.83727 0.284962 0.430249 -0.352959 -0.111136 1.07094 0.575422 -1.07223 0.375235 -0.245476 -0.65852 0.42872 -0.159158 0.301454 -0.245822 -0.053868 0.0819629 -0.438127 -1.08245 1.09929 -1.26529
way 0.125739 -0.71765 -0.0616294 0.148451 -0.815246 -0.476156 1.05838 -0.00223888 -0.413604 -0.191168 -0.414519 0.380495 0.220611 0.530842 -0.17498 -0.0708559 -1.31555 0.921788 -0.591519 -0.256953 0.094778 0.0829463 -0.938797 -0.804078 0.14927 -0.368553 0.514683 1.0838 -0.118115 0.122886 -0.302603 0.69141 0.904298 -0.49367 0.247411 -0.156787 -0.106721 0.787255 -0.1932 -1.09311 -0.676854 -0.135997 -0.685842 0.160494 0.62913 -0.386878 -1.0557 0.585645 -0.918619 -0.824281 -0.281572 0.392695 -0.739279 -0.568413 0.254424 0.16306 0.449359 -0.63703 0.0233777 0.631099 0.842581 -0.260661 -0.10884 0.102806 -0.236182 0.386251 -0.902181 0.605678 0.337205 0.361906 -0.658205 0.0519706 -0.107863 0.311631 -0.270582 -0.199572 -1.29061 -0.989078 0.668284 -0.10629 0.591709 -0.307459 -0.509878 0.0105036 -0.245967 0.0238385 -0.115101 -0.505769 0.51683 0.380823 0.0920663 0.100113 0.100016 -0.586255 -0.304461 -0.765889 -0.324802 0.621867 0.537265 1.16757 0.010077 0.438045 0.692335 0.432904 -0.334281 -0.339775 0.263013 0.527668 -0.766234 -1.34383 -0.155985 0.277253 -0.558671 0.356945 -1.06776 -0.0170619 -0.0658438 -0.224895 -0.312961 -0.824297 0.144366 0.154654 0.0473398 -0.041778 0.0942522 -0.2452 -0.0834552 -0.526064
began 0.203572 -0.705432 0.0564051 -0.865306 0.401724 1.74266 -0.441002 -0.588534 0.314036 0.291104 -0.079044 0.524098 -0.268441 -0.029301 -0.0261988 -0.688612 -0.133337 -0.364915 -0.353312 1.33704 -0.597272 0.0518356 -0.0318464 0.0938751 0.0391028 0.145216 0.083272 -0.00617871 -0.0844478 0.0773826 -0.738163 -0.0745084 0.590029 0.181794 0.556376 -0.121395 -0.00909412 0.266921 -0.47668 -0.0544785 0.0112901 -1.01243 0.0321108 0.245888 0.172694 0.00716294 0.896142 0.746293 -0.347058 -1.42258 0.037044 0.548185 0.466649 0.170621 0.00303267 -0.0907098 0.732933 0.182904 0.220216 0.318551 0.383625 -0.886214 0.519391 0.474676 0.361419 0.402664 -0.582269 0.411002 0.0120181 0.777549 -0.372867 -0.172805 0.52371 0.214123 -0.360433 -0.0302211 -0.243813 0.725899 0.154597 -1.08368 0.0110432 -1.09666 0.142248 -0.0850551 -0.773359 -0.0658689 -1.06971 0.29401 -0.258493 -0.377386 0.166423 0.102637 -0.128461 -0.402241 0.872198 0.2759 -0.333008 0.0311254 0.761103 0.923031 -0.29937 0.21911 0.274973 0.963331 0.595113 1.55346 -0.236294 0.396081 0.646755 0.295186 -1.06369 0.0166266 -0.0982596 -1.53636 1.02366 -0.394428 0.0744014 -0.814337 1.16009 -0.17039 0.0571653 0.132124 0.844387 0.499271 0.111484 0.0361179 -0.23974 -0.857246
who -0.758275 0.101306 0.446884 0.0675566 0.0219214 -0.143598 -0.236395 -0.557957 0.383777 0.568984 0.303049 -0.238466 0.517958 1.21996 -0.748224 0.3109 0.148927 -0.145261 0.361925 -0.480814 -0.951985 0.0346646 -0.204644 0.100388 0.413411 -0.105733 0.0486909 -0.102119 0.384022 0.337184 0.115962 0.0466864 -0.634417 0.387998 -0.253058 -0.0506012 -0.222883 1.03627 -0.16095 0.857886 -0.252496 -0.483528 0.112899 0.957782 -0.558302 0.0187867 0.477695 -0.692394 -0.123792 -0.394801 -0.231204 -0.733156 0.69455 0.238095 0.0101215 -0.883615 0.907694 -0.915278 -1.20649 0.047498 -1.15733 -0.26528 0.00816056 0.890859 -0.184989 0.0584065 0.0269143 -0.577663 1.09066 -0.26279 0.0922909 -0.0356042 0.002294 0.45885 0.0741423 0.113085 -1.16687 -0.0204764 -0.315508 0.314876 0.371736 -0.121094 -0.505596 0.53117 -0.419415 -0.182498 0.00605354 -0.0416436 -0.295639 0.179776 -0.064833 -0.0803241 -0.254356 -0.181496 -0.0198463 -0.778674 0.0897147 0.405613 0.299742 0.828512 0.747758 0.0329691 0.534453 -0.825788 -1.23018 0.0950279 0.198715 -0.0344683 -0.458486 -0.911062 -0.0819027 1.28376 0.188297 -0.530168 -0.328758 0.483729 -0.0170596 0.335762 0.887754 0.852914 0.193248 0.436217 0.803995 -0.601937 -0.0387958 -0.844929 0.440059 -0.0121791
‘and 0.419531 0.39984 0.890571 0.306472 -0.210619 1.10109 0.175415 -0.272005 -0.308074 0.0462976 1.04469 -0.600908 0.308808 1.42325 0.207934 0.254319 0.870651 0.233605 0.156119 0.960777 -0.227904 -0.521471 -0.451669 -0.211067 -0.593748 0.560204 -0.23139 -0.785558 0.172815 0.614197 -0.225682 0.0665617 -0.129229 -0.144122 0.257084 -0.547856 -0.0970072 -0.24418 0.683052 0.587509 -0.217119 -1.21985 0.116912 -0.253364 -0.0443437 -0.364043 -0.0901889 -0.623014 -1.03102 -0.0702374 -0.620353 0.556613 0.0338842 -0.407886 0.880672 -0.480122 -1.35247 -1.055 -0.0694324 0.126803 0.382296 0.780385 0.253995 -0.160674 0.00277817 -0.0765731 -0.933592 0.240691 -0.0652381 -1.14014 -0.270828 -0.27648 -0.0957497 -0.341791 0.43885 0.951817 -0.24675 -0.125508 0.230427 -0.0899285 0.433909 0.355283 1.44129 1.09927 -1.00453 1.01608 0.0966579 0.112145 -0.685709 0.14627 -0.760152 0.0830587 0.477951 0.300083 1.4929 -0.00476632 -0.598134 0.0351164 -0.452788 0.587537 -0.687531 -0.10541 -0.258637 -0.490263 -0.415717 0.100386 0.410333 -0.0854066 -0.663143 0.0558057 0.114307 -0.569175 -0.925241 -0.133721 0.313496 -0.777535 -0.476444 0.132896 -0.355389 -0.00044317 0.164463 0.287304 0.799416 0.0499332 -1.04884 0.207409 0.696493 0.450136
mock 0.0793345 0.0275264 0.0715782 0.318136 -0.134437 0.383319 0.323287 0.110885 -1.05216 0.967972 0.358979 -0.0399712 1.19896 0.404406 0.334324 -0.753452 0.116529 -1.03232 -0.172021 -0.881278 -0.109915 -0.565087 -0.99054 0.565868 0.469166 0.0494614 -0.358426 -0.521409 -0.145188 1.20164 0.329169 0.343558 0.261924 -0.103035 0.0407794 -0.226391 0.297466 0.324528 -0.211229 0.387474 0.0525311 -0.0367224 0.0513479 0.0582734 0.0993303 -0.382683 0.136172 0.425008 0.0817214 0.473438 1.44308 -0.522589 -0.293648 -0.355744 -0.20734 0.0171556 -0.0255549 0.221354 -0.124117 -0.083309 -0.534997 -0.748489 0.665612 0.322038 0.108526 0.0635933 0.0592744 -0.255949 0.176933 -0.0988728 0.176933 -0.14536 0.0737761 0.00814306 0.128774 -0.0528869 0.621182 -0.354605 -1.0883 0.549545 0.558903 0.724407 0.813051 0.162199 -0.70033 0.224799 -0.137558 0.378522 -0.212367 0.0336055 0.00868675 -0.326525 0.635048 1.17806 0.609842 -0.89916 0.722715 -0.262767 -0.144764 -0.786398 -0.436115 -0.279074 0.698979 -1.01391 -0.641683 -0.789205 -0.225948 -0.452808 -1.00143 -0.176953 -1.21741 0.0515131 0.799446 -0.0585463 0.485372 -0.107452 -0.236287 -0.773104 0.855954 -0.242309 0.292825 -0.919264 -1.87445 0.677702 -0.628677 0.226669 -0.11818 -0.119349
